\data\
ngram 1=70
ngram 2=1629
ngram 3=4616
ngram 4=6468
ngram 5=7735

\1-grams:
-2.8079557	<unk>	0
0	<s>	-0.37996665
0	</s>	-0.37996665
-1.8402082	speedbird	-0.4027311
-1.6149402	four	-0.3391539
-1.8590649	quebec	-0.25114545
-1.8221363	mike	-0.2440222
-1.9439303	make	-0.946372
-2.748039	your	-0.37996665
-1.8787777	speed	-0.8437096
-1.6149402	two	-0.42482018
-1.6149402	six	-0.28708777
-1.6492128	zero	-0.40949902
-2.748039	knots	-0.37996662
-1.8787777	ryanair	-0.42013556
-1.8047864	xray	-0.25250784
-1.7131293	india	-0.2576118
-1.8590649	juliett	-0.23728094
-1.8787777	turn	-0.8980673
-2.748039	right	-0.37996665
-1.5730833	one	-0.37555653
-1.6260666	fife	-0.39168677
-2.712244	degrees	-0.20912373
-1.8590649	astraeus	-0.45493224
-1.7565444	whiskey	-0.24433146
-1.7271242	resume	-1.15898
-2.748039	own	-0.37996665
-2.748039	navigation	-0.37996665
-2.8079557	to	-0.1684724
-1.7415851	victor	-0.28403884
-1.6374855	alfa	-0.27974215
-1.8047864	papa	-0.26114714
-1.8787777	delta	-0.25962743
-1.7415851	yankee	-0.255463
-1.7565444	climb	-1.1300163
-1.6864238	flight	-1.1990973
-2.748039	level	-0.37996665
-1.7131293	mach	-1.1727684
-2.748039	decimal	-0.37996662
-1.6492128	seven	-0.31214845
-1.6864238	contact	-1.1990973
-2.748039	london	-0.37996662
-1.7271242	foxtrot	-0.23622444
-1.7415851	golf	-0.22564162
-1.7271242	oscar	-0.24900587
-1.7720371	charlie	-0.24133419
-1.6374855	three	-0.34322488
-1.7271242	kilo	-0.249296
-1.6612656	echo	-0.24531895
-1.6736625	november	-0.227008
-1.6612656	tango	-0.22827277
-1.6995713	lima	-0.2819645
-1.7881032	zulu	-0.24521723
-2.5553508	hundred	-0.23188977
-2.712244	direct	-0.35731006
-1.6612656	sierra	-0.24407774
-1.6492128	niner	-0.302152
-1.6040916	eight	-0.31686926
-1.8047864	hotel	-0.21242914
-1.6864238	route	-0.5290069
-1.7565444	uniform	-0.24507184
-1.6864238	bravo	-0.26052842
-1.7271242	romeo	-0.22889155
-1.8047864	descend	-1.0825917
-1.7415851	continue	-1.1447396
-2.748039	present	-0.37996665
-2.712244	heading	-0.37996662
-2.748039	left	-0.37996665
-1.6864238	fly	-1.0825917
-1.9680171	roger	-0.62186086

\2-grams:
-0.22979493	<s> speedbird	-0.1001891
-1.7642758	mike speedbird	-0.1001891
-1.3740734	zero speedbird	-0.27714336
-0.6981253	knots speedbird	-0.1001891
-1.7535845	xray speedbird	-0.1001891
-1.5547267	india speedbird	-0.124538176
-1.5702059	fife speedbird	-0.1001891
-0.86546344	degrees speedbird	-0.14069661
-1.4688004	alfa speedbird	-0.12141881
-1.7793299	papa speedbird	-0.1001891
-1.7528962	delta speedbird	-0.1001891
-1.4627422	yankee speedbird	-0.12873243
-0.6981253	london speedbird	-0.1001891
-1.4839482	oscar speedbird	-0.124538176
-1.7303069	kilo speedbird	-0.1001891
-1.8286079	echo speedbird	-0.1001891
-1.7493776	november speedbird	-0.1001891
-1.7173842	tango speedbird	-0.1001891
-1.720374	lima speedbird	-0.1592845
-1.0666714	hundred speedbird	-0.1001891
-1.740832	sierra speedbird	-0.1001891
-1.7903569	uniform speedbird	-0.1001891
-1.2626903	heading speedbird	-0.1001891
-0.8354868	roger speedbird	-0.1001891
-1.3423073	speedbird four	-0.14373983
-1.4110029	four four	-0.12873243
-1.5973306	quebec four	-0.1001891
-1.5918343	mike four	-0.1001891
-1.715886	two four	-0.21050297
-1.5651857	six four	-0.14373983
-1.4511176	zero four	-0.1001891
-1.4047222	ryanair four	-0.13636926
-1.5833769	xray four	-0.1001891
-1.7059644	india four	-0.1001891
-1.6011025	juliett four	-0.1001891
-1.4985137	one four	-0.17053644
-1.4394617	fife four	-0.15033384
-1.3514025	astraeus four	-0.12718245
-1.5215905	whiskey four	-0.1001891
-1.6161939	victor four	-0.1001891
-1.741281	alfa four	-0.1001891
-1.5851496	papa four	-0.1001891
-1.6370125	delta four	-0.1001891
-1.6614022	yankee four	-0.1001891
-1.1254793	level four	-0.1001891
-0.96939594	decimal four	-0.1001891
-1.5928848	seven four	-0.1001891
-1.6074905	foxtrot four	-0.1001891
-1.6427318	golf four	-0.1001891
-1.5717709	charlie four	-0.1001891
-1.8024842	three four	-0.1592845
-1.6643916	kilo four	-0.1001891
-1.6899074	echo four	-0.1001891
-1.6265016	november four	-0.1001891
-1.6648111	tango four	-0.1001891
-1.5569267	zulu four	-0.1001891
-1.6694279	sierra four	-0.1001891
-1.7520913	niner four	-0.1001891
-1.6346513	eight four	-0.12141881
-1.5937538	hotel four	-0.1001891
-1.5942926	uniform four	-0.1001891
-1.6859311	bravo four	-0.1001891
-1.6300731	romeo four	-0.1001891
-1.2312915	heading four	-0.1001891
-2.003293	speedbird quebec	-0.1001891
-1.9268609	four quebec	-0.1001891
-2.0763588	two quebec	-0.1001891
-1.8791472	six quebec	-0.1001891
-2.0158942	ryanair quebec	-0.1001891
-1.7621195	xray quebec	-0.1001891
-1.6491413	juliett quebec	-0.1001891
-1.975667	one quebec	-0.1001891
-1.6738896	fife quebec	-0.1001891
-1.8748296	astraeus quebec	-0.12873243
-1.7951316	victor quebec	-0.1001891
-1.8974515	alfa quebec	-0.1001891
-1.7882112	papa quebec	-0.1001891
-1.691493	delta quebec	-0.1001891
-1.6590283	foxtrot quebec	-0.1001891
-1.7095963	charlie quebec	-0.1001891
-1.9371307	three quebec	-0.14373983
-1.7512355	tango quebec	-0.1001891
-1.8208241	lima quebec	-0.1001891
-1.9691929	niner quebec	-0.1001891
-1.9875505	eight quebec	-0.1001891
-1.650162	hotel quebec	-0.1001891
-1.7625177	romeo quebec	-0.1001891
-1.6802409	speedbird mike	-0.1001891
-1.9067014	four mike	-0.1001891
-1.6246347	quebec mike	-0.1001891
-1.7555312	mike mike	-0.1001891
-1.9867706	two mike	-0.1001891
-1.8163912	ryanair mike	-0.1001891
-1.4092623	india mike	-0.13467333
-2.0176964	one mike	-0.1001891
-1.8610299	astraeus mike	-0.1001891
-1.6047959	whiskey mike	-0.1001891
-1.5756059	to mike	-0.20429862
-1.7781695	victor mike	-0.1001891
-1.8758852	alfa mike	-0.1001891
-1.7063559	papa mike	-0.1001891
-1.7446735	delta mike	-0.1001891
-1.8859916	seven mike	-0.1001891
-1.7027626	oscar mike	-0.1001891
-1.7832798	kilo mike	-0.1001891
-1.7393638	echo mike	-0.13467333
-1.7635155	november mike	-0.1001891
-1.7906767	tango mike	-0.1001891
-1.945103	niner mike	-0.1001891
-1.9205188	eight mike	-0.1001891
-1.8260792	route mike	-0.1001891
-1.6943486	uniform mike	-0.14373983
-2.0266	four make	-0.1001891
-1.664183	quebec make	-0.19214964
-1.8108523	mike make	-0.1001891
-2.1270041	two make	-0.1001891
-1.9787108	six make	-0.1001891
-2.12206	zero make	-0.1001891
-1.8318541	fife make	-0.37946242
-1.8311825	victor make	-0.1001891
-1.7965208	delta make	-0.1001891
-1.7635322	yankee make	-0.19214964
-1.9505154	seven make	-0.19214964
-1.7643106	foxtrot make	-0.1001891
-1.8210956	golf make	-0.1001891
-1.8135477	charlie make	-0.1001891
-2.0563052	three make	-0.1001891
-1.7951146	zulu make	-0.1001891
-1.9705031	niner make	-0.19214964
-1.9679234	eight make	-0.25452366
-1.7290992	romeo make	-0.19214964
-0.052047506	make your	-1.056156
-1.9893051	four speed	-0.1001891
-0.23017241	your speed	-0.1001891
-2.0169663	two speed	-0.19214964
-2.0826426	zero speed	-0.1001891
-1.7708256	xray speed	-0.1001891
-1.8090153	india speed	-0.19214964
-2.0071146	one speed	-0.1001891
-1.9995259	fife speed	-0.1592845
-1.7003181	whiskey speed	-0.1001891
-1.8947908	seven speed	-0.25452366
-1.666144	foxtrot speed	-0.19214964
-1.6987586	golf speed	-0.1592845
-1.7846626	charlie speed	-0.1001891
-1.9477246	three speed	-0.1592845
-1.7602161	tango speed	-0.19214964
-1.8301432	lima speed	-0.1001891
-1.9817581	niner speed	-0.1001891
-1.9538773	eight speed	-0.1001891
-1.8094866	uniform speed	-0.1001891
-1.8372959	bravo speed	-0.1001891
-1.771724	romeo speed	-0.1001891
-0.439378	fly speed	-0.87431246
-1.3423073	speedbird two	-0.13415554
-1.6121426	four two	-0.1001891
-1.5973306	quebec two	-0.1001891
-1.6419202	mike two	-0.1001891
-0.22294487	speed two	-0.46589747
-1.5204977	two two	-0.12873243
-1.5651857	six two	-0.1001891
-1.7133783	zero two	-0.1001891
-1.26087	ryanair two	-0.1749545
-1.5833769	xray two	-0.1001891
-1.7059644	india two	-0.1001891
-0.80717444	right two	-0.1001891
-1.4985137	one two	-0.1001891
-1.4394617	fife two	-0.1001891
-1.3514025	astraeus two	-0.1365664
-1.581146	whiskey two	-0.1001891
-1.6161939	victor two	-0.1001891
-1.7028661	alfa two	-0.1001891
-1.5851496	papa two	-0.1001891
-1.6126821	yankee two	-0.1001891
-1.1254793	level two	-0.1001891
-1.5928848	seven two	-0.1001891
-1.5294836	foxtrot two	-0.1001891
-1.6017809	oscar two	-0.1001891
-1.3771921	charlie two	-0.14373983
-1.4568512	three two	-0.124538176
-1.5965785	kilo two	-0.14373983
-1.6481833	echo two	-0.1001891
-1.6440215	november two	-0.1001891
-1.6648111	tango two	-0.1001891
-1.6167307	lima two	-0.1001891
-1.6315675	zulu two	-0.1001891
-1.6041896	sierra two	-0.1001891
-1.5106708	niner two	-0.13467333
-1.4483681	eight two	-0.1001891
-1.6617206	uniform two	-0.1001891
-1.6406422	bravo two	-0.1001891
-1.5805413	romeo two	-0.1001891
-1.2312915	heading two	-0.1001891
-0.80717444	left two	-0.1001891
-1.395439	speedbird six	-0.11708903
-1.337157	four six	-0.12141881
-1.53913	quebec six	-0.19214964
-1.5699553	mike six	-0.1001891
-1.3862227	two six	-0.16675335
-1.7149185	six six	-0.1592845
-1.6073918	zero six	-0.12873243
-1.4047222	ryanair six	-0.11313027
-1.6358596	xray six	-0.1001891
-1.6467879	india six	-0.1001891
-1.521486	juliett six	-0.1001891
-1.5826181	one six	-0.12873243
-1.5947583	fife six	-0.13467333
-1.511973	astraeus six	-0.1538671
-1.5215905	whiskey six	-0.1001891
-1.6161939	victor six	-0.1001891
-1.6857677	alfa six	-0.1001891
-1.6574819	papa six	-0.1001891
-1.5835733	delta six	-0.1001891
-1.6126821	yankee six	-0.1001891
-1.1254793	level six	-0.1001891
-0.96939594	decimal six	-0.1001891
-1.5928848	seven six	-0.1001891
-1.5294836	foxtrot six	-0.1001891
-1.5754136	golf six	-0.1001891
-1.6684991	oscar six	-0.1001891
-1.5934025	charlie six	-0.1001891
-1.7880135	three six	-0.1001891
-1.6643916	kilo six	-0.1001891
-1.6297109	echo six	-0.1001891
-1.6834482	november six	-0.1001891
-1.6648111	tango six	-0.1001891
-1.6869978	lima six	-0.1001891
-1.6315675	zulu six	-0.1001891
-1.4217652	sierra six	-0.1001891
-1.5106708	niner six	-0.20429862
-1.770027	eight six	-0.1001891
-1.5937538	hotel six	-0.1001891
-1.6406422	bravo six	-0.1001891
-1.2312915	heading six	-0.1001891
-1.5371343	speedbird zero	-0.11219301
-1.0198816	four zero	-0.36602965
-1.6154523	quebec zero	-0.1001891
-1.5872347	mike zero	-0.1001891
-1.0751147	two zero	-0.23247632
-1.0469337	six zero	-0.31768918
-1.5327584	zero zero	-0.15976189
-1.4125108	ryanair zero	-0.14222488
-1.6008577	xray zero	-0.1001891
-1.6199918	juliett zero	-0.1001891
-1.3213419	one zero	-0.30741298
-1.2840054	fife zero	-0.35575885
-1.3577503	astraeus zero	-0.13243593
-1.5988729	whiskey zero	-0.1001891
-1.6337278	victor zero	-0.1001891
-1.7650694	alfa zero	-0.1001891
-1.3989332	papa zero	-0.1001891
-1.6565148	delta zero	-0.1001891
-1.6312802	yankee zero	-0.1001891
-1.0762613	seven zero	-0.35461354
-1.6267138	foxtrot zero	-0.1001891
-1.4004196	golf zero	-0.1001891
-1.6900369	oscar zero	-0.1001891
-1.6635182	charlie zero	-0.1001891
-1.1103134	three zero	-0.34372258
-1.685707	kilo zero	-0.1001891
-1.7127608	echo zero	-0.1001891
-1.6654336	november zero	-0.1001891
-1.6872337	tango zero	-0.1001891
-1.4350859	lima zero	-0.1001891
-1.5971959	zulu zero	-0.1001891
-1.6437545	sierra zero	-0.1001891
-1.4375194	niner zero	-0.3586622
-1.1427027	eight zero	-0.32357413
-1.6340227	uniform zero	-0.1001891
-1.4505242	bravo zero	-0.14373983
-1.5763302	romeo zero	-0.1001891
-1.3698175	zero knots	-0.7474392
-1.7145375	mike ryanair	-0.1001891
-1.3790157	zero ryanair	-0.23328616
-0.69923604	knots ryanair	-0.1001891
-1.7708256	xray ryanair	-0.1001891
-1.5654258	india ryanair	-0.12141881
-1.5783242	fife ryanair	-0.13714236
-0.8678869	degrees ryanair	-0.13467333
-1.4771202	alfa ryanair	-0.12873243
-1.7698239	delta ryanair	-0.1001891
-1.3182219	yankee ryanair	-0.13867953
-0.69923604	london ryanair	-0.1001891
-1.4932048	oscar ryanair	-0.1001891
-1.7467545	kilo ryanair	-0.14373983
-1.8495299	echo ryanair	-0.1001891
-1.5536195	november ryanair	-0.11900804
-1.8209051	tango ryanair	-0.1001891
-1.8301432	lima ryanair	-0.1001891
-1.0703316	hundred ryanair	-0.1001891
-1.8094866	uniform ryanair	-0.1001891
-1.771724	romeo ryanair	-0.1001891
-1.2667797	heading ryanair	-0.1001891
-0.39252362	roger ryanair	-0.14023031
-1.7989135	speedbird xray	-0.1001891
-1.8969619	four xray	-0.1001891
-1.7469592	mike xray	-0.1001891
-1.9969542	two xray	-0.1001891
-1.8954763	six xray	-0.1001891
-1.9917119	zero xray	-0.1001891
-1.9854549	ryanair xray	-0.12873243
-1.737002	xray xray	-0.1001891
-1.7494707	india xray	-0.1592845
-1.6972654	juliett xray	-0.1001891
-1.9637042	one xray	-0.1001891
-1.7311027	astraeus xray	-0.1001891
-1.8654909	alfa xray	-0.1001891
-1.6989874	papa xray	-0.1001891
-1.7686677	yankee xray	-0.1001891
-1.8761116	seven xray	-0.1001891
-1.7206538	oscar xray	-0.1001891
-1.7489144	charlie xray	-0.1001891
-1.925942	three xray	-0.1001891
-1.6887376	kilo xray	-0.1001891
-1.7545912	echo xray	-0.1001891
-1.805983	november xray	-0.1001891
-1.8914973	eight xray	-0.1001891
-1.7720344	uniform xray	-0.1001891
-1.7409395	bravo xray	-0.1001891
-1.7360148	romeo xray	-0.1001891
-1.6462498	speedbird india	-0.13467333
-1.8840325	four india	-0.1001891
-1.6176554	mike india	-0.1592845
-1.9802617	two india	-0.1001891
-1.9723169	zero india	-0.1001891
-1.6565962	ryanair india	-0.1001891
-1.6316535	xray india	-0.1001891
-1.9426963	one india	-0.1001891
-1.9569517	fife india	-0.1001891
-1.8159163	astraeus india	-0.1001891
-1.5639775	whiskey india	-0.19214964
-1.5554479	to india	-0.14373983
-1.8078632	alfa india	-0.1001891
-1.080909	papa india	-0.124538176
-1.6310431	delta india	-0.1001891
-1.7194225	yankee india	-0.1001891
-1.3479629	foxtrot india	-0.17213367
-1.2820603	golf india	-0.1001891
-1.7284917	oscar india	-0.1001891
-1.5769726	three india	-0.1001891
-1.6468263	kilo india	-0.1592845
-1.753744	echo india	-0.1001891
-1.7491914	november india	-0.1001891
-1.6778113	tango india	-0.1001891
-0.9884931	lima india	-0.1538671
-1.1306146	sierra india	-0.18120864
-1.833195	niner india	-0.1001891
-1.8514004	eight india	-0.1001891
-1.648367	hotel india	-0.1001891
-1.8628416	route india	-0.1001891
-1.4716768	bravo india	-0.1001891
-1.6313279	romeo india	-0.1001891
-1.5912299	speedbird juliett	-0.11900804
-1.6374215	quebec juliett	-0.1001891
-2.0763588	two juliett	-0.1001891
-1.8572754	six juliett	-0.1001891
-1.8298769	ryanair juliett	-0.1001891
-1.7621195	xray juliett	-0.1001891
-1.8565505	india juliett	-0.1001891
-2.04174	one juliett	-0.1001891
-2.0092041	fife juliett	-0.1001891
-1.7464778	astraeus juliett	-0.1001891
-1.721479	papa juliett	-0.1001891
-1.7612777	delta juliett	-0.1001891
-1.7304683	yankee juliett	-0.1001891
-1.780993	golf juliett	-0.1001891
-1.8076646	oscar juliett	-0.1001891
-1.9576719	three juliett	-0.1001891
-1.7822541	november juliett	-0.1001891
-1.8108264	sierra juliett	-0.1001891
-1.9691929	niner juliett	-0.1001891
-1.7408481	eight juliett	-0.17213367
-1.7193319	hotel juliett	-0.1001891
-1.7998164	uniform juliett	-0.1001891
-1.765815	bravo juliett	-0.1001891
-1.937303	four turn	-0.19214964
-1.7195039	quebec turn	-0.1001891
-1.5848545	two turn	-0.25452366
-1.5309622	six turn	-0.30767086
-2.0345032	zero turn	-0.19214964
-1.7708256	xray turn	-0.1001891
-1.729163	juliett turn	-0.1001891
-1.567391	one turn	-0.30767086
-1.6790258	fife turn	-0.30741298
-1.5913743	whiskey turn	-0.1592845
-1.6987602	delta turn	-0.1001891
-1.804902	yankee turn	-0.1001891
-1.9170563	seven turn	-0.1001891
-1.8174233	oscar turn	-0.1001891
-1.9477246	three turn	-0.1592845
-1.7467545	kilo turn	-0.1592845
-1.8484404	november turn	-0.1001891
-1.8209051	tango turn	-0.1001891
-1.6684643	zulu turn	-0.1592845
-1.4958881	niner turn	-0.25452366
-1.7479832	eight turn	-0.37946242
-1.4351578	romeo turn	-0.19214964
-0.33123156	turn right	-0.63774043
-1.5935342	speedbird one	-0.11552519
-1.398599	four one	-0.11900804
-1.4949236	quebec one	-0.1001891
-1.5479362	mike one	-0.1001891
-0.57592547	speed one	-0.350866
-1.3765736	two one	-0.1538671
-1.5454116	six one	-0.1001891
-1.8687862	zero one	-0.1001891
-1.253542	ryanair one	-0.1287324
-1.6108162	xray one	-0.1001891
-1.6385381	india one	-0.1001891
-1.2976888	juliett one	-0.1001891
-0.8043319	right one	-0.1001891
-1.5657706	one one	-0.12873243
-1.2696804	fife one	-0.12873243
-1.3430805	astraeus one	-0.1508856
-1.5585824	whiskey one	-0.1001891
-1.6433921	victor one	-0.1001891
-1.7114637	alfa one	-0.1001891
-1.5632257	papa one	-0.1001891
-1.5616522	delta one	-0.1001891
-1.5688365	yankee one	-0.1001891
-1.1195843	level one	-0.1001891
-1.466763	seven one	-0.1001891
-1.5315111	foxtrot one	-0.1001891
-1.615727	golf one	-0.1001891
-1.641349	oscar one	-0.1001891
-1.5700537	charlie one	-0.1001891
-1.6267622	three one	-0.14373983
-1.6375067	kilo one	-0.1001891
-1.6046093	echo one	-0.1001891
-1.6005377	november one	-0.1592845
-1.5959618	tango one	-0.1001891
-1.6607105	lima one	-0.1001891
-1.5356	zulu one	-0.1001891
-1.5992703	sierra one	-0.1001891
-1.7230341	niner one	-0.1001891
-1.6130316	eight one	-0.12873243
-1.5688237	hotel one	-0.1001891
-1.5905712	uniform one	-0.1001891
-1.4225415	bravo one	-0.1001891
-1.5572144	romeo one	-0.1001891
-1.2237841	heading one	-0.1001891
-0.8043319	left one	-0.1001891
-1.3446333	speedbird fife	-0.124538176
-1.2763628	four fife	-0.13393998
-1.5756391	mike fife	-0.1592845
-1.1017442	two fife	-0.22288544
-1.570273	six fife	-0.12873243
-1.6116172	zero fife	-0.18608455
-1.4073029	ryanair fife	-0.1365664
-1.6423528	xray fife	-0.1001891
-1.7135152	india fife	-0.1001891
-1.607308	juliett fife	-0.1001891
-0.80788803	right fife	-0.1001891
-1.2690643	one fife	-0.25403637
-1.2798641	fife fife	-0.124538176
-1.4542639	astraeus fife	-0.14023031
-1.5266681	whiskey fife	-0.19214964
-1.5988967	victor fife	-0.1001891
-1.318101	alfa fife	-0.12873243
-1.3916714	papa fife	-0.13467333
-1.5892309	delta fife	-0.1001891
-1.1269656	level fife	-0.1001891
-0.97043306	decimal fife	-0.1001891
-1.5980034	seven fife	-0.12873243
-1.5586516	foxtrot fife	-0.1001891
-1.5814203	golf fife	-0.1001891
-1.3808527	charlie fife	-0.14373983
-1.1824123	three fife	-0.20731255
-1.6235286	kilo fife	-0.1001891
-1.4625262	echo fife	-0.1001891
-1.6721574	tango fife	-0.1001891
-1.4275653	lima fife	-0.1001891
-1.6381059	zulu fife	-0.1001891
-1.630573	sierra fife	-0.1001891
-1.3594489	niner fife	-0.15185283
-1.3816365	eight fife	-0.11900804
-1.5466623	hotel fife	-0.1001891
-1.4111612	uniform fife	-0.1001891
-1.5865742	romeo fife	-0.1001891
-1.2331887	heading fife	-0.1001891
-0.80788803	left fife	-0.1001891
-1.4272671	zero degrees	-0.64270383
-1.2212822	fife degrees	-0.7152545
-1.7067308	mike astraeus	-0.1001891
-1.3765376	zero astraeus	-0.30086628
-0.69868034	knots astraeus	-0.1001891
-1.7621195	xray astraeus	-0.1001891
-1.5600432	india astraeus	-0.1001891
-1.5742462	fife astraeus	-0.1446213
-0.86667347	degrees astraeus	-0.14747012
-1.3673905	alfa astraeus	-0.12014085
-1.7882112	papa astraeus	-0.1001891
-1.7612777	delta astraeus	-0.1001891
-1.4670604	yankee astraeus	-0.12873243
-0.69868034	london astraeus	-0.1001891
-1.4885519	oscar astraeus	-0.1001891
-1.8019074	kilo astraeus	-0.1001891
-1.8389429	echo astraeus	-0.1001891
-1.7583458	november astraeus	-0.12873243
-1.5043613	tango astraeus	-0.11708903
-1.7555782	lima astraeus	-0.1001891
-0.57311976	hundred astraeus	-0.11900804
-1.8108264	sierra astraeus	-0.1001891
-1.7366455	uniform astraeus	-0.1001891
-1.2647302	heading astraeus	-0.1001891
-0.6576142	roger astraeus	-0.13867953
-1.9613189	speedbird whiskey	-0.1001891
-1.8689895	four whiskey	-0.1001891
-1.667835	quebec whiskey	-0.1001891
-1.9495215	two whiskey	-0.1592845
-2.0025752	zero whiskey	-0.1001891
-1.95701	ryanair whiskey	-0.1001891
-1.7972618	india whiskey	-0.1001891
-1.6747912	juliett whiskey	-0.1001891
-1.9873871	fife whiskey	-0.1001891
-1.83468	astraeus whiskey	-0.1001891
-1.5491949	to whiskey	-0.21050297
-1.7461122	victor whiskey	-0.1001891
-1.7884668	alfa whiskey	-0.1001891
-1.7433474	yankee whiskey	-0.1001891
-1.8287002	seven whiskey	-0.1592845
-1.68257	foxtrot whiskey	-0.1001891
-1.7533128	oscar whiskey	-0.1001891
-1.7239107	charlie whiskey	-0.1001891
-1.8963732	three whiskey	-0.1001891
-1.7482626	kilo whiskey	-0.1001891
-1.7803289	echo whiskey	-0.1001891
-1.7009337	tango whiskey	-0.1001891
-1.7687551	lima whiskey	-0.1001891
-1.3969829	direct whiskey	-0.1001891
-1.7555152	sierra whiskey	-0.1001891
-1.8612479	niner whiskey	-0.1001891
-1.7459233	uniform whiskey	-0.1001891
-1.77203	bravo whiskey	-0.1001891
-1.7110368	romeo whiskey	-0.1001891
-1.2952235	four resume	-0.6804924
-1.5514851	two resume	-0.5555537
-1.6132723	six resume	-0.37946242
-1.6469873	zero resume	-0.47637242
-1.6380837	xray resume	-0.19214964
-1.7310431	india resume	-0.19214964
-1.5702934	juliett resume	-0.25452366
-1.6230991	one resume	-0.47637242
-1.9117604	fife resume	-0.25452366
-1.569579	whiskey resume	-0.19214964
-1.8169523	alfa resume	-0.1001891
-1.637359	delta resume	-0.19214964
-1.727252	yankee resume	-0.1001891
-1.5192949	seven resume	-0.47637242
-1.6059464	foxtrot resume	-0.19214964
-1.6562409	golf resume	-0.19214964
-1.6828576	oscar resume	-0.19214964
-1.6510355	charlie resume	-0.19214964
-1.4130695	three resume	-0.6225005
-1.731759	kilo resume	-0.1001891
-1.6921325	echo resume	-0.25452366
-1.7581557	november resume	-0.1001891
-1.4658452	tango resume	-0.37946242
-1.6942924	zulu resume	-0.1001891
-1.7385399	sierra resume	-0.1001891
-1.6671373	niner resume	-0.37946242
-1.4821259	eight resume	-0.5555537
-1.5693927	hotel resume	-0.25452366
-1.6750742	uniform resume	-0.19214964
-1.6795026	bravo resume	-0.25452366
-1.6951487	romeo resume	-0.1001891
-0.03115385	resume own	-1.2687641
-0.2337037	own navigation	-0.1001891
-0.53432274	navigation to	-0.1001891
-1.3650627	direct to	-0.16338803
-0.72081196	route to	-0.18818453
-1.4224799	speedbird victor	-0.13467333
-1.8600519	four victor	-0.1001891
-1.6609311	quebec victor	-0.1001891
-1.7142694	mike victor	-0.1001891
-1.8117149	six victor	-0.1001891
-1.4963127	ryanair victor	-0.11900804
-1.6446104	xray victor	-0.1001891
-1.7390467	india victor	-0.1001891
-1.9242412	one victor	-0.1001891
-1.9770031	fife victor	-0.1001891
-1.9888211	astraeus victor	-0.1001891
-1.5428357	to victor	-0.1592845
-1.7384546	victor victor	-0.1001891
-1.3451351	alfa victor	-0.17053644
-1.6172003	delta victor	-0.1001891
-1.8386966	seven victor	-0.1001891
-1.6122375	foxtrot victor	-0.1001891
-1.7186526	golf victor	-0.1001891
-1.4573061	oscar victor	-0.1001891
-1.886948	three victor	-0.1001891
-1.7399324	kilo victor	-0.1001891
-1.504011	echo victor	-0.25452366
-1.7673091	november victor	-0.1001891
-1.760653	lima victor	-0.1001891
-1.7018558	zulu victor	-0.1001891
-1.3940717	direct victor	-0.1001891
-1.8901469	niner victor	-0.1001891
-1.8744975	route victor	-0.1001891
-1.7375572	uniform victor	-0.1001891
-1.7030201	romeo victor	-0.1001891
-1.5335164	speedbird alfa	-0.1001891
-1.6222566	four alfa	-0.1001891
-1.6093273	quebec alfa	-0.1001891
-1.380878	mike alfa	-0.1001891
-1.8914307	two alfa	-0.1001891
-1.7294383	six alfa	-0.1001891
-1.9174738	zero alfa	-0.1001891
-1.6298636	ryanair alfa	-0.14101674
-1.5949523	xray alfa	-0.1001891
-1.531868	juliett alfa	-0.1001891
-1.840002	one alfa	-0.1001891
-1.9018176	fife alfa	-0.1001891
-1.5893068	astraeus alfa	-0.19214964
-1.5055863	whiskey alfa	-0.1001891
-1.4950597	to alfa	-0.18608455
-1.0681882	victor alfa	-0.19818164
-1.7569942	alfa alfa	-0.1001891
-1.6499162	delta alfa	-0.1001891
-1.6249919	yankee alfa	-0.1001891
-1.7723377	seven alfa	-0.1001891
-1.5875112	golf alfa	-0.14373983
-1.6565269	charlie alfa	-0.1001891
-1.8515238	three alfa	-0.1001891
-1.678485	kilo alfa	-0.1001891
-1.6618791	echo alfa	-0.1001891
-1.2556082	november alfa	-0.21512777
-1.6349611	tango alfa	-0.1001891
-1.6504016	lima alfa	-0.1001891
-1.6447444	zulu alfa	-0.1001891
-1.3714586	direct alfa	-0.1001891
-1.6371138	sierra alfa	-0.1001891
-1.767383	niner alfa	-0.1001891
-1.7998183	eight alfa	-0.1001891
-1.5288872	hotel alfa	-0.14373983
-1.4926573	route alfa	-0.14373983
-1.6758653	uniform alfa	-0.1001891
-1.4464146	bravo alfa	-0.1592845
-1.592692	romeo alfa	-0.14373983
-1.7989135	speedbird papa	-0.11900804
-1.876277	four papa	-0.1001891
-1.7469592	mike papa	-0.1001891
-1.5126554	six papa	-0.1001891
-1.5092111	ryanair papa	-0.16507795
-1.737002	xray papa	-0.1001891
-1.7494707	india papa	-0.1001891
-1.6289707	juliett papa	-0.1001891
-1.9449317	one papa	-0.1001891
-2.020117	fife papa	-0.1001891
-1.6352463	astraeus papa	-0.1001891
-1.5963042	to papa	-0.19214964
-1.8150706	alfa papa	-0.1001891
-1.8558033	seven papa	-0.1001891
-1.779639	oscar papa	-0.1001891
-1.7742573	kilo papa	-0.1001891
-1.7545912	echo papa	-0.1001891
-1.805983	november papa	-0.1001891
-1.7253567	tango papa	-0.1001891
-1.7334995	zulu papa	-0.1001891
-1.4058356	direct papa	-0.1001891
-1.7244105	sierra papa	-0.1001891
-1.8912388	niner papa	-0.1001891
-1.951611	eight papa	-0.1001891
-1.7720344	uniform papa	-0.1001891
-1.7360148	romeo papa	-0.1001891
-1.6956643	speedbird delta	-0.1001891
-1.9893051	four delta	-0.1001891
-1.8896956	six delta	-0.1001891
-1.8367801	ryanair delta	-0.1001891
-1.3124201	india delta	-0.13867953
-1.9864151	one delta	-0.1001891
-2.0203977	fife delta	-0.1001891
-1.8818976	astraeus delta	-0.12873243
-1.5965246	to delta	-0.25452366
-1.7698239	delta delta	-0.1001891
-1.8947908	seven delta	-0.1001891
-1.790677	golf delta	-0.1001891
-1.7904849	echo delta	-0.19214964
-1.8484404	november delta	-0.1001891
-1.6979692	zulu delta	-0.1001891
-1.4179271	direct delta	-0.1001891
-1.8207707	sierra delta	-0.1001891
-1.9141116	niner delta	-0.1001891
-1.8422267	route delta	-0.19214964
-1.7449939	uniform delta	-0.1001891
-1.7475241	bravo delta	-0.1592845
-1.6759257	romeo delta	-0.1001891
-1.773141	speedbird yankee	-0.1001891
-1.8600519	four yankee	-0.1001891
-1.655692	mike yankee	-0.1001891
-1.9588588	two yankee	-0.1001891
-1.8117149	six yankee	-0.19214964
-1.9922531	zero yankee	-0.1001891
-1.6658857	ryanair yankee	-0.12873243
-1.7881219	india yankee	-0.1001891
-1.9242412	one yankee	-0.1001891
-1.9770031	fife yankee	-0.1001891
-1.7114142	astraeus yankee	-0.15033384
-1.7596066	alfa yankee	-0.1001891
-1.7295483	papa yankee	-0.1001891
-1.6172003	delta yankee	-0.1001891
-1.8808937	seven yankee	-0.1001891
-1.6751822	foxtrot yankee	-0.1001891
-1.6634866	golf yankee	-0.1001891
-1.7448804	oscar yankee	-0.1001891
-1.6579382	charlie yankee	-0.1001891
-1.9263641	three yankee	-0.1001891
-1.6844008	kilo yankee	-0.1001891
-1.7199278	november yankee	-0.1001891
-1.6930887	tango yankee	-0.1001891
-1.4624833	lima yankee	-0.12873243
-1.7018558	zulu yankee	-0.1001891
-1.7469447	sierra yankee	-0.1001891
-1.8516941	niner yankee	-0.1001891
-1.853192	eight yankee	-0.1001891
-1.7098442	bravo yankee	-0.1001891
-1.6450099	romeo yankee	-0.1001891
-1.9130245	four climb	-0.1001891
-1.667835	quebec climb	-0.1001891
-2.0099926	two climb	-0.1001891
-1.8641706	six climb	-0.1001891
-1.9621762	zero climb	-0.19214964
-1.6246518	xray climb	-0.25452366
-1.7472007	india climb	-0.19214964
-1.6096954	juliett climb	-0.19214964
-1.6326313	one climb	-0.47637242
-1.7639875	fife climb	-0.37946242
-1.7884668	alfa climb	-0.19214964
-1.6776034	papa climb	-0.19214964
-1.7132564	delta climb	-0.1001891
-1.6600682	yankee climb	-0.25452366
-1.8287002	seven climb	-0.25452366
-1.68257	foxtrot climb	-0.1001891
-1.727029	golf climb	-0.1001891
-1.7533128	oscar climb	-0.1001891
-1.6649523	charlie climb	-0.19214964
-1.4967229	three climb	-0.5555537
-1.6917228	kilo climb	-0.19214964
-1.7803289	echo climb	-0.1001891
-1.7766595	november climb	-0.1001891
-1.7533903	tango climb	-0.1001891
-1.7095532	zulu climb	-0.1001891
-1.7008871	sierra climb	-0.19214964
-1.6796725	niner climb	-0.37946242
-1.9184196	eight climb	-0.1001891
-1.77203	bravo climb	-0.1001891
-1.5238398	four flight	-0.47637242
-1.5443695	quebec flight	-0.25452366
-1.4654087	two flight	-0.6225005
-1.4782059	six flight	-0.47637242
-1.7468375	zero flight	-0.37946242
-1.67636	xray flight	-0.1001891
-1.6878618	india flight	-0.25452366
-1.6397402	juliett flight	-0.1001891
-1.7210915	one flight	-0.37946242
-1.8860483	fife flight	-0.25452366
-1.7091063	victor flight	-0.1001891
-1.7474567	alfa flight	-0.19214964
-1.4217695	yankee flight	-0.37946242
-0.032733973	climb flight	-1.2398005
-1.506596	seven flight	-0.47637242
-1.6468275	foxtrot flight	-0.1001891
-1.635202	golf flight	-0.19214964
-1.6616645	oscar flight	-0.19214964
-1.6309627	charlie flight	-0.19214964
-1.4037762	three flight	-0.6225005
-1.7081228	kilo flight	-0.1001891
-1.6703131	echo flight	-0.25452366
-1.6686124	november flight	-0.25452366
-1.6420865	tango flight	-0.25452366
-1.4466166	lima flight	-0.37946242
-1.5910193	zulu flight	-0.25452366
-1.4465412	sierra flight	-0.37946242
-1.3749316	niner flight	-0.6225005
-1.5586494	eight flight	-0.47637242
-1.5515687	hotel flight	-0.25452366
-1.7056167	uniform flight	-0.1001891
-1.6808274	bravo flight	-0.19214964
-1.6180636	romeo flight	-0.19214964
-0.036674786	descend flight	-1.1923758
-0.0283133	flight level	-0.8524273
-1.8840325	four mach	-0.1001891
-1.5549719	quebec mach	-0.25452366
-1.6421472	mike mach	-0.19214964
-1.6410387	two mach	-0.47637242
-1.4865655	six mach	-0.47637242
-1.475249	zero mach	-0.6225005
-1.6062069	xray mach	-0.25452366
-1.5143862	india mach	-0.37946242
-1.8893055	one mach	-0.25452366
-1.6302093	fife mach	-0.47637242
-1.6301271	whiskey mach	-0.1001891
-1.6646221	victor mach	-0.19214964
-1.5638734	alfa mach	-0.37946242
-1.6572231	papa mach	-0.19214964
-1.6310431	delta mach	-0.19214964
-1.7194225	yankee mach	-0.1001891
-1.420729	seven mach	-0.5555537
-1.6607735	foxtrot mach	-0.1001891
-1.6491141	golf mach	-0.19214964
-1.7284917	oscar mach	-0.1001891
-1.8686899	three mach	-0.19214964
-1.6701173	kilo mach	-0.19214964
-1.7057658	echo mach	-0.19214964
-1.7273866	tango mach	-0.1001891
-1.6654679	lima mach	-0.25452366
-1.3836391	zulu mach	-0.37946242
-1.5465883	niner mach	-0.47637242
-1.3403716	eight mach	-0.6804924
-1.5633698	hotel mach	-0.25452366
-1.6447787	uniform mach	-0.25452366
-1.4716768	bravo mach	-0.37946242
-1.607059	romeo mach	-0.25452366
-0.030145701	mach decimal	-0.9077362
-1.403376	speedbird seven	-0.13243593
-1.7854577	four seven	-0.1001891
-1.6154523	quebec seven	-0.1001891
-1.6100255	mike seven	-0.1001891
-1.5305831	two seven	-0.15185283
-1.7533591	six seven	-0.1001891
-1.4600105	zero seven	-0.124538176
-1.35818	ryanair seven	-0.11219301
-1.6556379	xray seven	-0.1001891
-1.6858914	india seven	-0.1001891
-1.562122	juliett seven	-0.1001891
-1.3754214	one seven	-0.15185283
-1.3864754	fife seven	-0.13867953
-1.4596207	astraeus seven	-0.11708903
-1.5104791	whiskey seven	-0.1001891
-1.6337278	victor seven	-0.1001891
-1.7245893	alfa seven	-0.1001891
-1.6252471	papa seven	-0.1001891
-1.4101952	yankee seven	-0.1001891
-1.1299537	level seven	-0.1001891
-0.9725146	decimal seven	-0.1001891
-1.7800988	seven seven	-0.1001891
-1.6267138	foxtrot seven	-0.1001891
-1.6900369	oscar seven	-0.1001891
-1.6117767	charlie seven	-0.1001891
-1.8108776	three seven	-0.1001891
-1.420458	kilo seven	-0.14373983
-1.3454546	echo seven	-0.13467333
-1.6654336	november seven	-0.19214964
-1.6343725	lima seven	-0.1001891
-1.6514858	zulu seven	-0.1001891
-1.6315665	niner seven	-0.1001891
-1.6516031	eight seven	-0.14373983
-1.3242837	hotel seven	-0.1001891
-1.6831143	uniform seven	-0.1001891
-1.7077715	bravo seven	-0.1001891
-1.2370085	heading seven	-0.1001891
-1.8084038	four contact	-0.25452366
-1.3137964	quebec contact	-0.37946242
-1.6290121	mike contact	-0.19214964
-1.5409083	two contact	-0.5555537
-1.4782059	six contact	-0.47637242
-1.3501714	zero contact	-0.7316449
-1.5943317	xray contact	-0.25452366
-1.7078807	india contact	-0.19214964
-1.5793571	juliett contact	-0.19214964
-1.6091819	one contact	-0.47637242
-1.733657	fife contact	-0.37946242
-1.1404244	whiskey contact	-0.47637242
-1.6519995	victor contact	-0.19214964
-1.7474567	alfa contact	-0.19214964
-1.644149	papa contact	-0.19214964
-1.676934	delta contact	-0.1001891
-1.4217695	yankee contact	-0.37946242
-1.4139358	seven contact	-0.5555537
-1.587602	foxtrot contact	-0.19214964
-1.612767	golf contact	-0.25452366
-1.2596699	charlie contact	-0.47637242
-1.5679338	three contact	-0.47637242
-1.7081228	kilo contact	-0.1001891
-1.7368839	echo contact	-0.1001891
-1.6686124	november contact	-0.25452366
-1.6420865	tango contact	-0.25452366
-1.2333597	zulu contact	-0.47637242
-1.6643085	sierra contact	-0.19214964
-1.5373266	niner contact	-0.47637242
-1.6692436	eight contact	-0.37946242
-1.5764385	hotel contact	-0.19214964
-1.6315964	uniform contact	-0.25452366
-1.6808274	bravo contact	-0.19214964
-1.6180636	romeo contact	-0.19214964
-0.0283133	contact london	-1.1131945
-1.9424386	speedbird foxtrot	-0.1001891
-1.893483	four foxtrot	-0.1001891
-1.5883892	quebec foxtrot	-0.1001891
-1.8444872	six foxtrot	-0.1001891
-1.5691017	ryanair foxtrot	-0.1001891
-1.6981206	xray foxtrot	-0.1001891
-1.7310431	india foxtrot	-0.1001891
-1.6604296	juliett foxtrot	-0.1001891
-1.9149114	one foxtrot	-0.1001891
-1.9668616	fife foxtrot	-0.1001891
-1.996463	astraeus foxtrot	-0.1001891
-1.561996	to foxtrot	-0.19214964
-1.7309295	victor foxtrot	-0.1001891
-1.8169523	alfa foxtrot	-0.1001891
-1.6639109	papa foxtrot	-0.1001891
-1.637359	delta foxtrot	-0.1001891
-1.727252	yankee foxtrot	-0.1001891
-1.8298258	seven foxtrot	-0.1001891
-1.6679181	foxtrot foxtrot	-0.1001891
-1.7366087	oscar foxtrot	-0.1001891
-1.7080071	charlie foxtrot	-0.1001891
-1.9162726	three foxtrot	-0.1001891
-1.6772003	kilo foxtrot	-0.1001891
-1.7135316	echo foxtrot	-0.1001891
-1.7526994	lima foxtrot	-0.1001891
-1.3911798	direct foxtrot	-0.1001891
-1.8799434	niner foxtrot	-0.1001891
-1.8606261	eight foxtrot	-0.1001891
-1.8686304	route foxtrot	-0.1001891
-1.7293491	uniform foxtrot	-0.1001891
-1.7550522	bravo foxtrot	-0.1001891
-1.5633404	speedbird golf	-0.1001891
-1.8600519	four golf	-0.1001891
-1.8542174	six golf	-0.1001891
-1.9527612	zero golf	-0.1001891
-1.947928	ryanair golf	-0.1001891
-1.7056234	xray golf	-0.1001891
-1.7390467	india golf	-0.1001891
-1.9242412	one golf	-0.1001891
-1.4789073	astraeus golf	-0.13467333
-1.5686442	to golf	-0.17213367
-1.6776226	victor golf	-0.1001891
-1.8262358	alfa golf	-0.1001891
-1.7057449	delta golf	-0.1001891
-1.7352251	yankee golf	-0.1001891
-1.8808937	seven golf	-0.1001891
-1.6634866	golf golf	-0.1001891
-1.3167479	oscar golf	-0.1001891
-1.886948	three golf	-0.1001891
-1.7399324	kilo golf	-0.1001891
-1.7712852	echo golf	-0.1001891
-1.7199278	november golf	-0.1001891
-1.7445482	tango golf	-0.1001891
-1.6413348	zulu golf	-0.1001891
-1.3940717	direct golf	-0.1001891
-1.6933208	sierra golf	-0.1001891
-1.83458	niner golf	-0.1001891
-1.8700521	eight golf	-0.1001891
-1.8744975	route golf	-0.1001891
-1.68231	uniform golf	-0.1001891
-1.7030201	romeo golf	-0.1001891
-1.5594984	speedbird oscar	-0.1001891
-1.8326304	four oscar	-0.1001891
-1.2633053	mike oscar	-0.15033384
-1.8444872	six oscar	-0.1001891
-1.9821706	zero oscar	-0.1001891
-1.9390318	ryanair oscar	-0.13467333
-1.9526497	one oscar	-0.1001891
-1.9287374	fife oscar	-0.1001891
-1.9798005	astraeus oscar	-0.1001891
-1.561996	to oscar	-0.19214964
-1.7309295	victor oscar	-0.1001891
-1.8169523	alfa oscar	-0.1001891
-1.7217791	papa oscar	-0.1001891
-1.637359	delta oscar	-0.1592845
-1.8115278	seven oscar	-0.1001891
-1.4250253	golf oscar	-0.14373983
-1.6264197	charlie oscar	-0.1592845
-1.877723	three oscar	-0.1001891
-1.6772003	kilo oscar	-0.1001891
-1.6913049	november oscar	-0.13467333
-1.4658452	tango oscar	-0.21050297
-1.6719633	lima oscar	-0.1001891
-1.6942924	zulu oscar	-0.1001891
-1.685884	sierra oscar	-0.19214964
-1.8423461	niner oscar	-0.1001891
-1.8976225	eight oscar	-0.1001891
-1.6557032	hotel oscar	-0.1001891
-1.8686304	route oscar	-0.1001891
-1.7293491	uniform oscar	-0.1001891
-1.4760338	bravo oscar	-0.15033384
-1.6134746	romeo oscar	-0.25452366
-1.5711278	speedbird charlie	-0.14373983
-1.9231352	four charlie	-0.1001891
-1.7303069	mike charlie	-0.1001891
-1.9585385	two charlie	-0.1001891
-1.829937	six charlie	-0.1001891
-1.9718	zero charlie	-0.1001891
-1.9844679	ryanair charlie	-0.1001891
-1.7210294	xray charlie	-0.1001891
-1.7555107	india charlie	-0.1001891
-1.6821542	juliett charlie	-0.1001891
-1.925587	one charlie	-0.1001891
-1.9571942	fife charlie	-0.1001891
-1.5500796	astraeus charlie	-0.1001891
-1.5556486	to charlie	-0.1592845
-1.7539074	victor charlie	-0.1001891
-1.8570013	seven charlie	-0.1001891
-1.678351	golf charlie	-0.1001891
-1.7320863	charlie charlie	-0.1001891
-1.9060074	three charlie	-0.19214964
-1.7624161	tango charlie	-0.1001891
-1.6280178	zulu charlie	-0.1001891
-1.3999138	direct charlie	-0.1001891
-1.8531395	niner charlie	-0.1001891
-1.8719224	eight charlie	-0.1001891
-1.8864747	route charlie	-0.1001891
-1.7544538	uniform charlie	-0.1001891
-1.7807744	bravo charlie	-0.1001891
-1.6591371	romeo charlie	-0.1001891
-1.7257752	speedbird three	-0.16375035
-1.7780707	four three	-0.1001891
-1.6093273	quebec three	-0.1001891
-1.3363297	two three	-0.11552519
-1.7294383	six three	-0.1001891
-1.6158841	zero three	-0.1001891
-1.3078333	ryanair three	-0.12646891
-1.5715132	xray three	-0.1001891
-0.80860275	right three	-0.1001891
-1.4341439	one three	-0.11900804
-1.5172673	fife three	-0.1001891
-1.3556241	astraeus three	-0.1287324
-1.5318058	whiskey three	-0.1001891
-1.6816163	victor three	-0.1001891
-1.5341434	alfa three	-0.1001891
-1.6709701	papa three	-0.1001891
-1.6499162	delta three	-0.1001891
-1.1284572	level three	-0.1001891
-0.9714726	decimal three	-0.1001891
-1.7723377	seven three	-0.1001891
-1.6139636	oscar three	-0.1001891
-1.5833347	charlie three	-0.1001891
-1.4638336	three three	-0.1001891
-1.678485	kilo three	-0.1001891
-1.4669447	echo three	-0.1001891
-1.6400898	november three	-0.1592845
-1.4347363	tango three	-0.1001891
-1.6504016	lima three	-0.1001891
-1.6447444	zulu three	-0.1001891
-1.6838638	sierra three	-0.1001891
-1.4338936	niner three	-0.124538176
-1.3847424	eight three	-0.1001891
-1.5524564	hotel three	-0.1001891
-1.6275429	uniform three	-0.1001891
-1.6536285	bravo three	-0.1001891
-1.592692	romeo three	-0.1001891
-1.2350944	heading three	-0.1001891
-0.80860275	left three	-0.1001891
-1.6509458	speedbird kilo	-0.12141881
-1.8512944	four kilo	-0.1001891
-1.6541351	quebec kilo	-0.1001891
-1.7064674	mike kilo	-0.1001891
-1.7655166	two kilo	-0.1001891
-1.8028828	six kilo	-0.1001891
-1.6469873	zero kilo	-0.18608455
-1.6612161	ryanair kilo	-0.124538176
-1.6981206	xray kilo	-0.1001891
-1.6604296	juliett kilo	-0.1001891
-1.9149114	one kilo	-0.1001891
-1.9668616	fife kilo	-0.1001891
-1.6155111	astraeus kilo	-0.14516467
-1.561996	to kilo	-0.1592845
-1.7715952	alfa kilo	-0.1001891
-1.727252	yankee kilo	-0.1001891
-1.8298258	seven kilo	-0.1001891
-1.6679181	foxtrot kilo	-0.1001891
-1.6595144	oscar kilo	-0.1592845
-1.7080071	charlie kilo	-0.1001891
-1.877723	three kilo	-0.1001891
-1.731759	kilo kilo	-0.1001891
-1.6921325	echo kilo	-0.177759
-1.7117115	november kilo	-0.1001891
-1.7526994	lima kilo	-0.1001891
-1.3911798	direct kilo	-0.1001891
-1.8799434	niner kilo	-0.1001891
-1.8441212	eight kilo	-0.1001891
-1.6557032	hotel kilo	-0.1001891
-1.6515231	uniform kilo	-0.1001891
-1.6951487	romeo kilo	-0.1001891
-1.7371413	speedbird echo	-0.1001891
-1.8481616	four echo	-0.1001891
-1.6216649	quebec echo	-0.1001891
-1.6694311	mike echo	-0.1001891
-1.9435439	two echo	-0.1001891
-1.7444605	six echo	-0.1592845
-1.8846103	zero echo	-0.1001891
-1.8970953	ryanair echo	-0.13467333
-1.662436	xray echo	-0.1001891
-1.6930981	india echo	-0.1001891
-1.871051	one echo	-0.1001891
-1.7920963	astraeus echo	-0.124538176
-1.5422671	whiskey echo	-0.1001891
-1.5302007	to echo	-0.19214964
-1.6157326	victor echo	-0.1001891
-1.7732974	alfa echo	-0.1001891
-1.6848907	papa echo	-0.1001891
-1.2254639	delta echo	-0.15976189
-1.6894442	yankee echo	-0.1001891
-1.8253433	seven echo	-0.1001891
-1.6217219	golf echo	-0.1001891
-1.6480893	oscar echo	-0.1001891
-1.8187745	three echo	-0.1001891
-1.4244299	kilo echo	-0.1001891
-1.7206539	echo echo	-0.1001891
-1.3573859	november echo	-0.1592845
-1.6284757	tango echo	-0.1001891
-1.7149793	lima echo	-0.1001891
-1.6032333	zulu echo	-0.1001891
-1.3770025	direct echo	-0.1001891
-1.6987959	sierra echo	-0.1001891
-1.7832328	niner echo	-0.1001891
-1.8163409	eight echo	-0.1001891
-1.4975891	route echo	-0.21050297
-1.3223785	bravo echo	-0.24580075
-1.5823045	romeo echo	-0.1001891
-1.408749	speedbird november	-0.11900804
-1.8006197	four november	-0.1001891
-1.67659	mike november	-0.1001891
-1.9155062	two november	-0.1001891
-1.8076104	six november	-0.1001891
-1.9440302	zero november	-0.1001891
-1.9051648	ryanair november	-0.14373983
-1.373016	india november	-0.11900804
-1.9141358	one november	-0.1001891
-1.893482	fife november	-0.1001891
-1.687996	astraeus november	-0.12873243
-1.5123657	to november	-0.2067697
-1.7020689	victor november	-0.1001891
-1.7211198	alfa november	-0.1001891
-1.6920221	papa november	-0.1001891
-1.6700203	delta november	-0.1001891
-1.6967471	yankee november	-0.1001891
-1.7960502	seven november	-0.1001891
-1.6400188	foxtrot november	-0.1001891
-1.6284096	golf november	-0.1001891
-1.6329036	oscar november	-0.1001891
-1.6244727	charlie november	-0.1001891
-1.7005216	kilo november	-0.1001891
-1.4804765	echo november	-0.17583975
-1.6803184	november november	-0.1001891
-1.655858	tango november	-0.1001891
-1.5851481	zulu november	-0.1001891
-1.3798012	direct november	-0.1001891
-1.6358624	sierra november	-0.1001891
-1.7913802	niner november	-0.1001891
-1.824844	eight november	-0.1001891
-1.5457863	hotel november	-0.1001891
-1.7762176	route november	-0.1001891
-1.6472801	uniform november	-0.1001891
-1.722967	bravo november	-0.1001891
-1.6279577	speedbird tango	-0.1001891
-1.7929726	four tango	-0.1001891
-1.5603364	quebec tango	-0.1001891
-1.6694311	mike tango	-0.1001891
-1.8911564	two tango	-0.1001891
-1.7988604	six tango	-0.1001891
-1.8846103	zero tango	-0.1001891
-1.912551	ryanair tango	-0.1001891
-1.4955392	india tango	-0.14373983
-1.6264753	juliett tango	-0.1001891
-1.871051	one tango	-0.1001891
-1.9194292	fife tango	-0.1001891
-1.6834601	astraeus tango	-0.13467333
-1.6049464	whiskey tango	-0.1001891
-1.50652	to tango	-0.177759
-1.4047605	victor tango	-0.1001891
-1.5438291	alfa tango	-0.15033384
-1.6848907	papa tango	-0.1001891
-1.663215	delta tango	-0.1001891
-1.637661	yankee tango	-0.1001891
-1.8253433	seven tango	-0.1001891
-1.5509557	foxtrot tango	-0.1001891
-1.6715277	golf tango	-0.1001891
-1.626498	oscar tango	-0.1001891
-1.8690598	three tango	-0.1001891
-1.6930511	kilo tango	-0.1001891
-1.656353	echo tango	-0.1001891
-1.7150769	november tango	-0.1001891
-1.7149793	lima tango	-0.1001891
-1.3770025	direct tango	-0.1001891
-1.6293403	sierra tango	-0.1001891
-1.8322395	niner tango	-0.1001891
-1.8496095	eight tango	-0.1001891
-1.7715324	route tango	-0.1001891
-1.6904863	uniform tango	-0.1001891
-1.7153028	bravo tango	-0.1001891
-1.908227	speedbird lima	-0.1001891
-1.5769497	quebec lima	-0.1001891
-1.6113985	mike lima	-0.1001891
-1.9707872	two lima	-0.1001891
-1.8256576	six lima	-0.1001891
-1.925682	zero lima	-0.1001891
-1.5616522	ryanair lima	-0.11900804
-1.7154651	india lima	-0.1001891
-1.6465278	juliett lima	-0.1001891
-1.8806896	one lima	-0.1001891
-1.9472628	fife lima	-0.1001891
-1.6972122	astraeus lima	-0.1001891
-1.6236937	whiskey lima	-0.1001891
-1.6061797	to lima	-0.1001891
-1.6582649	victor lima	-0.1001891
-1.7553548	alfa lima	-0.1001891
-1.6839596	delta lima	-0.1001891
-1.8522309	seven lima	-0.1001891
-1.6537445	foxtrot lima	-0.1001891
-1.7205235	oscar lima	-0.1001891
-1.6136674	charlie lima	-0.25452366
-1.8967674	three lima	-0.1001891
-1.7158595	kilo lima	-0.1001891
-1.359096	echo lima	-0.1001891
-1.6760455	november lima	-0.1001891
-1.6590681	lima lima	-0.1001891
-1.3854532	direct lima	-0.1001891
-1.7222034	sierra lima	-0.1001891
-1.8242327	niner lima	-0.1001891
-1.8423667	eight lima	-0.1001891
-1.5826468	hotel lima	-0.1001891
-1.6609548	uniform lima	-0.1001891
-1.7387134	bravo lima	-0.1001891
-1.7923256	speedbird zulu	-0.1001891
-1.8874362	four zulu	-0.1001891
-1.6819811	quebec zulu	-0.1001891
-1.7385533	mike zulu	-0.1001891
-2.0310075	two zulu	-0.1001891
-1.8393431	six zulu	-0.1001891
-1.9816419	zero zulu	-0.1001891
-1.9943564	ryanair zulu	-0.12873243
-1.8161395	india zulu	-0.1001891
-1.5938807	juliett zulu	-0.1001891
-1.9534972	one zulu	-0.1001891
-2.0170646	astraeus zulu	-0.11900804
-1.8553395	alfa zulu	-0.1001891
-1.7537262	papa zulu	-0.1001891
-1.6635832	delta zulu	-0.1001891
-1.6997443	yankee zulu	-0.1001891
-1.8465797	seven zulu	-0.1001891
-1.6316768	foxtrot zulu	-0.1001891
-1.7706851	oscar zulu	-0.1001891
-1.7404188	charlie zulu	-0.1001891
-1.9158603	three zulu	-0.1001891
-1.716427	sierra zulu	-0.1001891
-1.9222795	niner zulu	-0.1001891
-1.7134249	eight zulu	-0.1001891
-1.6218845	hotel zulu	-0.1001891
-1.7631551	uniform zulu	-0.1001891
-1.7275282	romeo zulu	-0.1001891
-2.2620199	four hundred	-0.1001891
-2.3733468	two hundred	-0.1001891
-2.3535984	one hundred	-0.1001891
-2.3649156	fife hundred	-0.1001891
-2.311154	three hundred	-0.1001891
-0.534085	navigation direct	-0.1001891
-0.4850673	route direct	-0.32375944
-1.8833396	speedbird sierra	-0.1001891
-1.8911564	two sierra	-0.1001891
-1.5859032	six sierra	-0.1001891
-1.9001925	zero sierra	-0.1001891
-1.4776562	ryanair sierra	-0.13142274
-1.7369883	india sierra	-0.1001891
-1.6264753	juliett sierra	-0.1001891
-1.9050183	one sierra	-0.1001891
-1.9194292	fife sierra	-0.1001891
-1.5966338	astraeus sierra	-0.14579944
-1.5422671	whiskey sierra	-0.1001891
-1.50652	to sierra	-0.21050297
-1.6397333	victor sierra	-0.1001891
-1.4219753	alfa sierra	-0.18608455
-1.663215	delta sierra	-0.1001891
-1.7880013	seven sierra	-0.1001891
-1.6333153	foxtrot sierra	-0.1001891
-1.6217219	golf sierra	-0.1001891
-1.6974603	oscar sierra	-0.1001891
-1.6706237	charlie sierra	-0.1001891
-1.8187745	three sierra	-0.1001891
-1.6930511	kilo sierra	-0.1001891
-1.656353	echo sierra	-0.1001891
-1.6728123	november sierra	-0.1001891
-1.6949729	tango sierra	-0.1001891
-1.7149793	lima sierra	-0.1001891
-1.6583337	zulu sierra	-0.1001891
-1.3770025	direct sierra	-0.1001891
-1.6987959	sierra sierra	-0.1001891
-1.7984049	niner sierra	-0.19214964
-1.8496095	eight sierra	-0.1001891
-1.6202025	hotel sierra	-0.1001891
-1.8404285	route sierra	-0.1001891
-1.6406008	uniform sierra	-0.1001891
-1.7153028	bravo sierra	-0.1001891
-1.6577995	romeo sierra	-0.1001891
-1.4651258	speedbird niner	-0.12014085
-1.5117723	four niner	-0.13467333
-1.5549369	quebec niner	-0.1001891
-1.6100255	mike niner	-0.1001891
-1.2456907	two niner	-0.1595415
-1.7368845	six niner	-0.1001891
-1.3977182	zero niner	-0.11900804
-1.4125108	ryanair niner	-0.11219301
-1.7290221	india niner	-0.1001891
-1.5371535	juliett niner	-0.1001891
-1.3754214	one niner	-0.11900804
-1.716426	fife niner	-0.1001891
-1.4596207	astraeus niner	-0.11067426
-1.2608439	victor niner	-0.1001891
-1.7066318	alfa niner	-0.14373983
-1.6778747	papa niner	-0.1001891
-1.6312802	yankee niner	-0.1001891
-1.1299537	level niner	-0.1001891
-1.6084254	seven niner	-0.1001891
-1.6267138	foxtrot niner	-0.1001891
-1.6151354	golf niner	-0.1001891
-1.6117767	charlie niner	-0.1001891
-1.8108776	three niner	-0.1001891
-1.6363376	kilo niner	-0.1001891
-1.3454546	echo niner	-0.124538176
-1.4761297	november niner	-0.1001891
-1.621827	tango niner	-0.1001891
-1.7078131	lima niner	-0.1001891
-1.5736386	zulu niner	-0.1001891
-1.6229148	sierra niner	-0.1001891
-1.4375194	niner niner	-0.1001891
-1.7933483	eight niner	-0.1592845
-1.5344474	hotel niner	-0.1001891
-1.6340227	uniform niner	-0.1001891
-1.7077715	bravo niner	-0.1001891
-1.6507001	romeo niner	-0.1001891
-1.2370085	heading niner	-0.1001891
-1.4529854	speedbird eight	-0.15114333
-1.4078686	four eight	-0.12873243
-1.5914543	quebec eight	-0.1001891
-1.5859361	mike eight	-0.1001891
-1.445387	two eight	-0.13714236
-1.5601571	six eight	-0.1001891
-1.6032071	zero eight	-0.13467333
-1.4626989	ryanair eight	-0.1524896
-1.6294621	xray eight	-0.1001891
-1.6582037	india eight	-0.1001891
-1.1836972	one eight	-0.14179298
-1.831384	fife eight	-0.1001891
-1.2682984	astraeus eight	-0.13617134
-1.5165715	whiskey eight	-0.1001891
-1.6105032	victor eight	-0.1001891
-1.67903	alfa eight	-0.1001891
-1.384529	papa eight	-0.1001891
-1.6307017	delta eight	-0.1001891
-1.5856137	yankee eight	-0.1001891
-1.123998	level eight	-0.1001891
-0.9683614	decimal eight	-0.1001891
-1.2015566	seven eight	-0.15928453
-1.5242774	foxtrot eight	-0.1001891
-1.5897456	golf eight	-0.1001891
-1.6158992	oscar eight	-0.1001891
-1.5874466	charlie eight	-0.1001891
-1.5377018	three eight	-0.1001891
-1.6110866	kilo eight	-0.1001891
-1.641494	echo eight	-0.1001891
-1.6758883	november eight	-0.1001891
-1.5962056	tango eight	-0.1001891
-1.6802753	lima eight	-0.1001891
-1.6251259	zulu eight	-0.1001891
-1.4177699	sierra eight	-0.1001891
-1.6093746	niner eight	-0.14373983
-1.5272483	eight eight	-0.1001891
-1.5353009	hotel eight	-0.1001891
-1.6548172	uniform eight	-0.1001891
-1.6342919	bravo eight	-0.1001891
-1.5532225	romeo eight	-0.1001891
-1.2294024	heading eight	-0.1001891
-1.7989135	speedbird hotel	-0.1001891
-1.9440912	four hotel	-0.1001891
-2.0419092	two hotel	-0.1001891
-1.9725541	zero hotel	-0.1001891
-2.0044754	ryanair hotel	-0.19214964
-1.6439148	xray hotel	-0.1001891
-1.6972654	juliett hotel	-0.1001891
-2.006156	one hotel	-0.1001891
-1.9583167	fife hotel	-0.1001891
-1.7311027	astraeus hotel	-0.1001891
-1.568851	to hotel	-0.19214964
-1.7699306	victor hotel	-0.1001891
-1.6989874	papa hotel	-0.1001891
-1.7686677	yankee hotel	-0.1001891
-1.9223142	seven hotel	-0.1001891
-1.6383549	foxtrot hotel	-0.1001891
-1.925942	three hotel	-0.1001891
-1.6887376	kilo hotel	-0.1001891
-1.7319782	november hotel	-0.14373983
-1.7810507	tango hotel	-0.1001891
-1.7940097	lima hotel	-0.1001891
-1.8912388	niner hotel	-0.1001891
-1.8914973	eight hotel	-0.1001891
-1.8987918	route hotel	-0.1001891
-1.7720344	uniform hotel	-0.1001891
-1.7409395	bravo hotel	-0.1001891
-1.6432203	four route	-0.1001891
-1.6838689	mike route	-0.1001891
-1.7483351	two route	-0.14373983
-1.4782059	six route	-0.22848964
-1.6333838	zero route	-0.17053644
-1.5943317	xray route	-0.1001891
-1.7078807	india route	-0.1001891
-1.5793571	juliett route	-0.1001891
-1.7210915	one route	-0.13467333
-1.6210716	fife route	-0.30741298
-1.6173543	whiskey route	-0.1001891
-1.7091063	victor route	-0.1001891
-1.7474567	alfa route	-0.1001891
-1.6992724	papa route	-0.1001891
-1.676934	delta route	-0.1001891
-1.6274812	yankee route	-0.1001891
-1.4139358	seven route	-0.2652658
-1.587602	foxtrot route	-0.19214964
-1.635202	golf route	-0.1001891
-1.7126989	oscar route	-0.1001891
-1.607429	charlie route	-0.1001891
-1.3403001	three route	-0.24580075
-1.7081228	kilo route	-0.1001891
-1.6906388	echo route	-0.1001891
-1.7317992	november route	-0.1001891
-1.6630532	tango route	-0.1001891
-1.7296766	lima route	-0.1001891
-1.672362	zulu route	-0.1001891
-1.6424838	sierra route	-0.1001891
-1.3749316	niner route	-0.27124542
-1.5586494	eight route	-0.17053644
-1.5515687	hotel route	-0.1592845
-1.6540637	uniform route	-0.19214964
-1.6180636	romeo route	-0.1001891
-1.7794422	speedbird uniform	-0.1001891
-1.667835	quebec uniform	-0.1001891
-1.9680741	two uniform	-0.1001891
-1.8207304	six uniform	-0.1001891
-1.776835	zero uniform	-0.1001891
-1.95701	ryanair uniform	-0.1001891
-1.2478006	xray uniform	-0.1001891
-1.6096954	juliett uniform	-0.1001891
-1.9337759	one uniform	-0.1001891
-1.7162533	astraeus uniform	-0.12873243
-1.5491949	to uniform	-0.25452366
-1.6842717	victor uniform	-0.1001891
-1.737459	papa uniform	-0.1001891
-1.6502731	delta uniform	-0.1001891
-1.7433474	yankee uniform	-0.1001891
-1.6708553	golf uniform	-0.1001891
-1.6975838	oscar uniform	-0.1001891
-1.878481	three uniform	-0.1001891
-1.7482626	kilo uniform	-0.1001891
-1.7071202	november uniform	-0.1001891
-1.7533903	tango uniform	-0.1001891
-1.7687551	lima uniform	-0.1001891
-1.7008871	sierra uniform	-0.1592845
-1.8437606	niner uniform	-0.1001891
-1.8624562	eight uniform	-0.1001891
-1.6707579	hotel uniform	-0.1001891
-1.8804449	route uniform	-0.1001891
-1.77203	bravo uniform	-0.1001891
-1.652016	romeo uniform	-0.19214964
-1.7488128	speedbird bravo	-0.1001891
-1.8260344	four bravo	-0.1001891
-1.6343632	quebec bravo	-0.1001891
-1.6290121	mike bravo	-0.1001891
-1.961515	two bravo	-0.1001891
-1.7774154	six bravo	-0.1001891
-1.9170182	zero bravo	-0.1001891
-1.7604066	ryanair bravo	-0.1001891
-1.7533729	india bravo	-0.1001891
-1.5793571	juliett bravo	-0.1001891
-1.7210915	one bravo	-0.1001891
-1.9020312	fife bravo	-0.1001891
-1.6925796	astraeus bravo	-0.1001891
-1.6173543	whiskey bravo	-0.1001891
-1.518291	to bravo	-0.22040342
-1.7091063	victor bravo	-0.1001891
-1.5537356	alfa bravo	-0.14373983
-1.6186805	delta bravo	-0.1001891
-1.8430821	seven bravo	-0.1001891
-1.635202	golf bravo	-0.1001891
-1.6851932	charlie bravo	-0.1001891
-1.8511685	three bravo	-0.1001891
-1.7081228	kilo bravo	-0.1001891
-1.7368839	echo bravo	-0.1001891
-1.7108774	tango bravo	-0.1001891
-1.4466166	lima bravo	-0.1001891
-1.672362	zulu bravo	-0.1001891
-1.382618	direct bravo	-0.1001891
-1.7142599	sierra bravo	-0.1001891
-1.8506972	niner bravo	-0.1001891
-1.8179932	eight bravo	-0.1001891
-1.7511195	route bravo	-0.1592845
-1.4311543	uniform bravo	-0.1001891
-1.7307688	bravo bravo	-0.1001891
-1.9256479	speedbird romeo	-0.13467333
-1.8512944	four romeo	-0.1001891
-1.6541351	quebec romeo	-0.1001891
-1.9320303	two romeo	-0.1592845
-1.9821706	zero romeo	-0.1001891
-1.6612161	ryanair romeo	-0.12873243
-1.7310431	india romeo	-0.1001891
-1.5973046	juliett romeo	-0.1001891
-1.9117604	fife romeo	-0.1001891
-1.6155111	astraeus romeo	-0.1001891
-1.6366571	whiskey romeo	-0.1001891
-1.6210395	to romeo	-0.1001891
-1.7309295	victor romeo	-0.1001891
-1.7715952	alfa romeo	-0.1001891
-1.8711278	seven romeo	-0.1001891
-1.6679181	foxtrot romeo	-0.1001891
-1.6828576	oscar romeo	-0.1001891
-1.877723	three romeo	-0.1001891
-1.6772003	kilo romeo	-0.1001891
-1.7117115	november romeo	-0.1001891
-1.6633376	tango romeo	-0.1001891
-1.6347479	zulu romeo	-0.1001891
-1.3911798	direct romeo	-0.1001891
-1.7385399	sierra romeo	-0.1001891
-1.8423461	niner romeo	-0.1001891
-1.8976225	eight romeo	-0.1001891
-1.6557032	hotel romeo	-0.1001891
-1.7646668	route romeo	-0.1592845
-1.6750742	uniform romeo	-0.1001891
-1.7550522	bravo romeo	-0.1001891
-1.6951487	romeo romeo	-0.1001891
-1.876277	four descend	-0.25452366
-1.7469592	mike descend	-0.1001891
-1.4894812	two descend	-0.6225005
-1.8489573	six descend	-0.19214964
-1.9917119	zero descend	-0.19214964
-1.737002	xray descend	-0.1001891
-1.9449317	one descend	-0.25452366
-1.6588361	fife descend	-0.47637242
-1.7699306	victor descend	-0.1001891
-1.8150706	alfa descend	-0.19214964
-1.7620943	papa descend	-0.1001891
-1.7686677	yankee descend	-0.1001891
-1.9223142	seven descend	-0.1001891
-1.6937424	golf descend	-0.19214964
-1.779639	oscar descend	-0.1001891
-1.6867008	charlie descend	-0.19214964
-1.7303848	three descend	-0.37946242
-1.7742573	kilo descend	-0.1001891
-1.7544409	november descend	-0.19214964
-1.7253567	tango descend	-0.19214964
-1.7940097	lima descend	-0.1001891
-1.6687295	zulu descend	-0.19214964
-1.699181	niner descend	-0.37946242
-1.7201201	eight descend	-0.37946242
-1.7720344	uniform descend	-0.1001891
-1.7988098	bravo descend	-0.1001891
-1.9031439	four continue	-0.1001891
-1.5942239	quebec continue	-0.19214964
-1.7142694	mike continue	-0.1001891
-1.9406878	two continue	-0.25452366
-1.7929215	six continue	-0.25452366
-1.9922531	zero continue	-0.1001891
-1.7881219	india continue	-0.1001891
-1.667551	juliett continue	-0.1001891
-1.4592651	one continue	-0.6225005
-1.9380174	fife continue	-0.19214964
-1.643287	whiskey continue	-0.1001891
-1.7384546	victor continue	-0.1001891
-1.8262358	alfa continue	-0.1001891
-1.645353	papa continue	-0.25452366
-1.8808937	seven continue	-0.1001891
-1.6901584	oscar continue	-0.19214964
-1.7158861	charlie continue	-0.1001891
-1.7051271	three continue	-0.37946242
-1.6844008	kilo continue	-0.19214964
-1.7214389	echo continue	-0.19214964
-1.7199278	november continue	-0.19214964
-1.6930887	tango continue	-0.19214964
-1.760653	lima continue	-0.1001891
-1.7018558	zulu continue	-0.1001891
-1.670028	sierra continue	-0.25452366
-1.6733596	niner continue	-0.37946242
-1.577668	eight continue	-0.47637242
-1.6018226	hotel continue	-0.19214964
-1.68231	uniform continue	-0.19214964
-1.6865553	bravo continue	-0.25452366
-0.03223178	continue present	-1.2545236
-0.2336561	present heading	-0.1001891
-0.25572777	fly heading	-0.6606536
-0.38977957	turn left	-0.58131474
-1.8657267	four fly	-0.1001891
-1.571341	quebec fly	-0.19214964
-1.6838689	mike fly	-0.1001891
-1.9070474	two fly	-0.1592845
-1.760021	six fly	-0.25452366
-1.4690894	zero fly	-0.37946242
-1.6190721	xray fly	-0.19214964
-1.7078807	india fly	-0.19214964
-1.6397402	juliett fly	-0.1001891
-1.3834914	one fly	-0.37946242
-1.8860483	fife fly	-0.21050297
-1.5529866	whiskey fly	-0.19214964
-1.6519995	victor fly	-0.19214964
-1.7285491	alfa fly	-0.25452366
-1.6202617	papa fly	-0.1592845
-1.5935616	delta fly	-0.1592845
-1.786979	seven fly	-0.1592845
-1.5621034	foxtrot fly	-0.1592845
-1.612767	golf fly	-0.1592845
-1.6616645	oscar fly	-0.19214964
-1.6851932	charlie fly	-0.1001891
-1.4781445	three fly	-0.38659424
-1.6337088	kilo fly	-0.1592845
-1.7368839	echo fly	-0.1001891
-1.6879565	november fly	-0.1001891
-1.6420865	tango fly	-0.1592845
-1.6760538	lima fly	-0.1001891
-1.6424838	sierra fly	-0.1592845
-1.6489879	niner fly	-0.21050297
-1.4705793	eight fly	-0.37461767
-1.5764385	hotel fly	-0.19214964
-1.7056167	uniform fly	-0.1001891
-1.4630917	bravo fly	-0.21050297
-1.672356	romeo fly	-0.1001891
-2.039779	four roger	-0.1001891
-1.8207984	mike roger	-0.1001891
-1.992019	six roger	-0.1001891
-2.0585103	zero roger	-0.1001891
-1.8075075	xray roger	-0.1001891
-1.8487378	india roger	-0.1001891
-2.1084092	one roger	-0.1001891
-2.1217961	fife roger	-0.1001891
-1.8951876	alfa roger	-0.1001891
-2.0193005	seven roger	-0.1001891
-1.8317277	golf roger	-0.1001891
-2.0163229	three roger	-0.1001891
-1.8046763	zulu roger	-0.1001891
-1.9831069	niner roger	-0.19214964
-2.0027585	eight roger	-0.1001891
-1.6883125	hotel roger	-0.1001891
-1.850476	uniform roger	-0.1001891
-1.8107293	bravo roger	-0.1001891

\3-grams:
-1.26903	echo mike speedbird	-0.059829086
-0.8887108	four zero speedbird	-0.059829086
-1.1411068	two zero speedbird	-0.059829086
-0.79831964	six zero speedbird	-0.10016455
-0.8621889	one zero speedbird	-0.12501523
-0.99200195	fife zero speedbird	-0.1414805
-0.7469903	seven zero speedbird	-0.076439194
-0.84617954	three zero speedbird	-0.120216325
-0.691373	niner zero speedbird	-0.08403044
-0.82928216	eight zero speedbird	-0.076439194
-0.47708404	zero knots speedbird	-0.15997563
-1.0826222	echo xray speedbird	-0.059829086
-1.0555583	kilo india speedbird	-0.059829086
-1.4169084	lima india speedbird	-0.059829086
-1.1081445	sierra india speedbird	-0.059829086
-1.1983305	bravo india speedbird	-0.059829086
-1.4326068	four fife speedbird	-0.059829086
-1.2648987	six fife speedbird	-0.059829086
-1.4570365	fife fife speedbird	-0.059829086
-1.2648987	seven fife speedbird	-0.059829086
-1.5167627	three fife speedbird	-0.059829086
-1.3630589	eight fife speedbird	-0.059829086
-0.7389322	zero degrees speedbird	-0.09120025
-0.4144006	fife degrees speedbird	-0.14559507
-1.1663331	mike alfa speedbird	-0.059829086
-0.8781116	victor alfa speedbird	-0.13689843
-1.1197107	golf alfa speedbird	-0.059829086
-1.4041325	november alfa speedbird	-0.059829086
-1.1197107	romeo alfa speedbird	-0.059829086
-0.9347716	uniform papa speedbird	-0.059829086
-1.4470073	india delta speedbird	-0.059829086
-1.0175952	papa yankee speedbird	-0.059829086
-1.1031355	delta yankee speedbird	-0.059829086
-0.8848364	golf yankee speedbird	-0.059829086
-0.8392472	lima yankee speedbird	-0.059829086
-0.5740112	contact london speedbird	-0.1663657
-1.2786564	mike oscar speedbird	-0.059829086
-0.6343794	papa oscar speedbird	-0.059829086
-1.1103752	kilo oscar speedbird	-0.059829086
-1.2786564	bravo oscar speedbird	-0.059829086
-0.92891747	alfa kilo speedbird	-0.059829086
-0.94115627	echo kilo speedbird	-0.059829086
-1.3361312	kilo echo speedbird	-0.059829086
-1.4385324	india november speedbird	-0.059829086
-0.99455136	echo november speedbird	-0.059829086
-1.0819068	uniform november speedbird	-0.059829086
-1.3666147	alfa tango speedbird	-0.059829086
-1.1757127	echo tango speedbird	-0.059829086
-0.92727524	november tango speedbird	-0.059829086
-1.1763928	alfa lima speedbird	-0.059829086
-1.2493411	echo lima speedbird	-0.059829086
-1.0768155	uniform lima speedbird	-0.059829086
-0.86400497	four hundred speedbird	-0.059829086
-0.7667307	two hundred speedbird	-0.059829086
-0.86400497	fife hundred speedbird	-0.059829086
-0.65671355	india sierra speedbird	-0.059829086
-1.1809509	echo sierra speedbird	-0.059829086
-1.0886356	golf uniform speedbird	-0.059829086
-0.9506438	present heading speedbird	-0.059829086
-0.4921687	mike roger speedbird	-0.059829086
-0.73368186	zero roger speedbird	-0.059829086
-0.65960944	india roger speedbird	-0.059829086
-0.4921687	one roger speedbird	-0.059829086
-0.65960944	fife roger speedbird	-0.059829086
-0.65960944	eight roger speedbird	-0.059829086
-0.61597425	<s> speedbird four	-0.059829086
-1.1647866	zero speedbird four	-0.059829086
-1.3334767	knots speedbird four	-0.059829086
-1.4006398	degrees speedbird four	-0.059829086
-0.9074166	alfa speedbird four	-0.059829086
-1.3498503	london speedbird four	-0.059829086
-1.208647	tango speedbird four	-0.059829086
-1.0574756	hundred speedbird four	-0.059829086
-1.1522056	roger speedbird four	-0.059829086
-1.3898317	speedbird four four	-0.059829086
-1.2179154	one four four	-0.059829086
-1.4000722	astraeus four four	-0.059829086
-1.288868	level four four	-0.059829086
-1.0844806	seven four four	-0.059829086
-1.258847	eight four four	-0.059829086
-0.90982777	tango quebec four	-0.059829086
-1.2623404	ryanair mike four	-0.059829086
-1.3031759	astraeus mike four	-0.059829086
-1.0847476	speed two four	-0.50346667
-1.3496526	zero two four	-0.059829086
-1.4684969	level two four	-0.059829086
-1.4183477	heading two four	-0.059829086
-1.383151	speedbird six four	-0.059829086
-1.4338969	ryanair six four	-0.059829086
-1.0444034	alfa six four	-0.059829086
-1.1360059	three six four	-0.059829086
-1.5915358	six zero four	-0.059829086
-1.4323585	ryanair zero four	-0.059829086
-0.88237107	xray zero four	-0.059829086
-1.6390711	fife zero four	-0.059829086
-1.4093317	astraeus zero four	-0.059829086
-0.88237107	delta zero four	-0.059829086
-0.88237107	kilo zero four	-0.059829086
-1.4765491	zero ryanair four	-0.059829086
-1.3812402	knots ryanair four	-0.059829086
-1.4467515	degrees ryanair four	-0.059829086
-1.333048	alfa ryanair four	-0.059829086
-1.4100788	london ryanair four	-0.059829086
-1.2168238	oscar ryanair four	-0.059829086
-1.0980613	kilo ryanair four	-0.059829086
-1.3268437	heading ryanair four	-0.059829086
-1.2081296	speedbird xray four	-0.059829086
-0.6444725	november xray four	-0.059829086
-1.3462374	ryanair india four	-0.059829086
-1.2139809	astraeus juliett four	-0.059829086
-1.3660396	speedbird one four	-0.059829086
-1.3277502	four one four	-0.059829086
-1.4554752	ryanair one four	-0.059829086
-1.3391747	level one four	-0.059829086
-1.0425779	november one four	-0.059829086
-1.2928882	heading one four	-0.059829086
-1.3766956	speedbird fife four	-0.059829086
-1.3766956	fife fife four	-0.059829086
-1.3750083	astraeus fife four	-0.059829086
-1.0949174	victor fife four	-0.059829086
-1.3224626	level fife four	-0.059829086
-1.0949174	echo fife four	-0.059829086
-1.1544863	uniform fife four	-0.059829086
-1.1389155	zero astraeus four	-0.059829086
-1.335409	knots astraeus four	-0.059829086
-1.2139322	india astraeus four	-0.059829086
-1.4286054	degrees astraeus four	-0.059829086
-1.3383492	alfa astraeus four	-0.059829086
-0.85898846	delta astraeus four	-0.059829086
-1.3495373	london astraeus four	-0.059829086
-1.2347609	oscar astraeus four	-0.059829086
-0.8173551	november astraeus four	-0.059829086
-1.335409	heading astraeus four	-0.059829086
-1.2348794	astraeus whiskey four	-0.059829086
-0.5863538	seven whiskey four	-0.059829086
-1.4162451	speedbird victor four	-0.059829086
-1.3841552	ryanair victor four	-0.059829086
-1.1810491	four alfa four	-0.059829086
-1.3700467	speedbird papa four	-0.059829086
-1.4376792	ryanair papa four	-0.059829086
-1.3335767	astraeus papa four	-0.059829086
-1.3558881	ryanair delta four	-0.059829086
-0.651049	oscar yankee four	-0.059829086
-0.7774003	flight level four	-0.39128566
-0.69350034	mach decimal four	-0.80449665
-1.4989587	speedbird seven four	-0.059829086
-1.2112881	four seven four	-0.059829086
-0.90909976	mike seven four	-0.059829086
-1.4629843	ryanair seven four	-0.059829086
-1.3433739	ryanair foxtrot four	-0.059829086
-0.6495725	seven golf four	-0.059829086
-1.3467413	speedbird charlie four	-0.059829086
-1.1379417	fife charlie four	-0.059829086
-1.3779404	astraeus charlie four	-0.059829086
-1.5052769	level three four	-0.059829086
-1.3293066	heading three four	-0.059829086
-1.5037416	astraeus kilo four	-0.059829086
-1.3490952	astraeus echo four	-0.059829086
-1.0113539	speedbird november four	-0.18125364
-1.2847822	astraeus november four	-0.059829086
-1.0583106	seven november four	-0.059829086
-1.2880635	speedbird tango four	-0.059829086
-1.2599633	ryanair zulu four	-0.059829086
-0.99765515	astraeus zulu four	-0.059829086
-0.90297824	three zulu four	-0.059829086
-0.92079633	seven sierra four	-0.059829086
-1.5927935	speedbird niner four	-0.059829086
-1.1887966	ryanair niner four	-0.059829086
-1.183389	november niner four	-0.059829086
-1.1935008	speedbird eight four	-0.059829086
-0.9156981	quebec eight four	-0.059829086
-1.0446033	ryanair eight four	-0.059829086
-0.6489152	lima eight four	-0.059829086
-1.1442554	speedbird hotel four	-0.059829086
-0.90933096	six uniform four	-0.059829086
-1.1444073	zero uniform four	-0.059829086
-1.2117518	ryanair uniform four	-0.059829086
-1.3391846	astraeus bravo four	-0.059829086
-1.3183905	astraeus romeo four	-0.059829086
-1.7806591	fly heading four	-0.059829086
-1.7403888	knots speedbird quebec	-0.059829086
-1.1217662	lima speedbird quebec	-0.059829086
-1.7138745	heading speedbird quebec	-0.059829086
-1.2741592	speedbird four quebec	-0.059829086
-1.7061306	astraeus four quebec	-0.059829086
-1.7380873	speedbird two quebec	-0.059829086
-1.5845773	ryanair six quebec	-0.059829086
-1.2865866	sierra six quebec	-0.059829086
-1.7458055	knots ryanair quebec	-0.059829086
-1.815741	london ryanair quebec	-0.059829086
-1.3768463	hundred ryanair quebec	-0.059829086
-1.2601575	speedbird xray quebec	-0.059829086
-1.3256781	ryanair juliett quebec	-0.059829086
-0.650086	niner juliett quebec	-0.059829086
-1.3982089	astraeus one quebec	-0.059829086
-0.9530908	foxtrot one quebec	-0.059829086
-0.668745	golf one quebec	-0.059829086
-1.5139672	speedbird fife quebec	-0.059829086
-1.5797976	ryanair fife quebec	-0.059829086
-1.5059924	astraeus fife quebec	-0.059829086
-1.2460877	papa fife quebec	-0.059829086
-1.4089233	eight fife quebec	-0.059829086
-1.8242716	zero astraeus quebec	-0.059829086
-1.6688743	knots astraeus quebec	-0.059829086
-1.6529597	alfa astraeus quebec	-0.059829086
-1.6688743	heading astraeus quebec	-0.059829086
-0.9365375	four victor quebec	-0.059829086
-0.9466785	sierra alfa quebec	-0.059829086
-1.0882963	four papa quebec	-0.059829086
-0.92385423	six delta quebec	-0.059829086
-0.6533088	golf delta quebec	-0.059829086
-0.65086454	victor foxtrot quebec	-0.059829086
-0.65086454	three foxtrot quebec	-0.059829086
-1.4004501	speedbird charlie quebec	-0.059829086
-1.0748513	one charlie quebec	-0.059829086
-1.2549381	speedbird three quebec	-0.059829086
-1.4992387	one three quebec	-0.059829086
-1.6981399	astraeus three quebec	-0.059829086
-1.3150167	speedbird tango quebec	-0.059829086
-0.93148804	ryanair tango quebec	-0.059829086
-0.9392893	zero lima quebec	-0.059829086
-1.227571	alfa niner quebec	-0.059829086
-1.7930363	astraeus eight quebec	-0.059829086
-1.3613049	astraeus hotel quebec	-0.059829086
-1.0632805	kilo hotel quebec	-0.059829086
-1.3262262	ryanair romeo quebec	-0.059829086
-1.6868659	zero speedbird mike	-0.059829086
-1.5992287	london speedbird mike	-0.059829086
-1.3457602	oscar speedbird mike	-0.059829086
-1.3733349	tango speedbird mike	-0.059829086
-1.5524564	heading speedbird mike	-0.059829086
-1.6969664	astraeus four mike	-0.059829086
-1.2122068	niner four mike	-0.059829086
-1.0579094	four quebec mike	-0.059829086
-0.91416407	hotel quebec mike	-0.059829086
-1.0829513	oscar mike mike	-0.059829086
-1.7772511	ryanair two mike	-0.059829086
-1.7358733	astraeus two mike	-0.059829086
-1.3118998	niner two mike	-0.059829086
-1.7148383	zero ryanair mike	-0.059829086
-1.743283	degrees ryanair mike	-0.059829086
-1.7044777	london ryanair mike	-0.059829086
-1.1800904	roger ryanair mike	-0.059829086
-0.5761623	mike india mike	-0.18125364
-1.2191566	ryanair india mike	-0.059829086
-1.0996653	to india mike	-0.059829086
-0.7715182	foxtrot india mike	-0.18125364
-1.0838283	tango india mike	-0.059829086
-1.7308764	ryanair one mike	-0.059829086
-1.4686935	zero astraeus mike	-0.059829086
-1.6620004	knots astraeus mike	-0.059829086
-1.6925365	london astraeus mike	-0.059829086
-1.6620004	heading astraeus mike	-0.059829086
-1.1473414	speedbird whiskey mike	-0.059829086
-1.2671146	astraeus whiskey mike	-0.059829086
-1.4956751	navigation to mike	-0.059829086
-1.3839878	direct to mike	-0.059829086
-1.315901	route to mike	-0.059829086
-1.1888483	oscar victor mike	-0.059829086
-1.3609284	bravo alfa mike	-0.059829086
-1.4220413	speedbird papa mike	-0.059829086
-0.9258397	alfa papa mike	-0.059829086
-0.9306937	uniform delta mike	-0.059829086
-1.515258	astraeus seven mike	-0.059829086
-1.2879666	hotel seven mike	-0.059829086
-1.382017	speedbird oscar mike	-0.059829086
-1.2445437	astraeus oscar mike	-0.059829086
-0.4624015	tango oscar mike	-0.28161785
-0.659367	niner kilo mike	-0.059829086
-0.9300432	direct echo mike	-0.059829086
-0.65661734	sierra echo mike	-0.059829086
-1.2025385	route echo mike	-0.059829086
-0.71863127	ryanair november mike	-0.059829086
-1.4437333	india november mike	-0.059829086
-1.3261216	sierra tango mike	-0.059829086
-1.6641244	astraeus niner mike	-0.059829086
-0.94868094	mike eight mike	-0.059829086
-0.94868094	oscar eight mike	-0.059829086
-1.0940807	charlie route mike	-0.059829086
-0.6618067	november route mike	-0.059829086
-0.34224156	to uniform mike	-0.28161785
-1.0720036	november uniform mike	-0.059829086
-0.6535158	route uniform mike	-0.059829086
-1.2293504	seven four make	-0.059829086
-0.651264	alfa quebec make	-0.059829086
-0.651264	lima quebec make	-0.059829086
-0.9382385	quebec mike make	-0.059829086
-0.962831	victor two make	-0.059829086
-0.9533195	yankee six make	-0.059829086
-0.67363954	foxtrot zero make	-0.059829086
-1.5888555	fife fife make	-0.059829086
-1.2455845	three fife make	-0.18125364
-1.1992952	lima fife make	-0.059829086
-1.4420782	niner fife make	-0.059829086
-0.9403582	three victor make	-0.059829086
-1.0896024	seven delta make	-0.059829086
-0.6581628	seven yankee make	-0.059829086
-0.93294835	november yankee make	-0.059829086
-0.9511434	alfa seven make	-0.059829086
-1.2189454	niner seven make	-0.059829086
-0.93303955	india foxtrot make	-0.059829086
-1.0933436	niner golf make	-0.059829086
-0.93852466	seven charlie make	-0.059829086
-1.1212089	charlie three make	-0.059829086
-1.2681725	eight zulu make	-0.059829086
-1.3093373	four niner make	-0.059829086
-0.9526994	mike niner make	-0.059829086
-1.1122648	tango eight make	-0.059829086
-1.2214664	sierra eight make	-0.059829086
-1.3676975	eight eight make	-0.059829086
-0.65593624	quebec romeo make	-0.059829086
-0.9287658	zulu romeo make	-0.059829086
-0.04080268	four make your	-0.059829086
-0.032714546	quebec make your	-0.18125364
-0.04080268	mike make your	-0.059829086
-0.04080268	two make your	-0.059829086
-0.04080268	six make your	-0.059829086
-0.04080268	zero make your	-0.059829086
-0.020970877	fife make your	-0.4065566
-0.04080268	victor make your	-0.059829086
-0.04080268	delta make your	-0.059829086
-0.032714546	yankee make your	-0.18125364
-0.032714546	seven make your	-0.18125364
-0.04080268	foxtrot make your	-0.059829086
-0.04080268	golf make your	-0.059829086
-0.04080268	charlie make your	-0.059829086
-0.04080268	three make your	-0.059829086
-0.04080268	zulu make your	-0.059829086
-0.032714546	niner make your	-0.18125364
-0.028192408	eight make your	-0.28161785
-0.032714546	romeo make your	-0.18125364
-1.2244465	seven four speed	-0.059829086
-0.015990136	make your speed	-0.88367784
-1.4310161	one two speed	-0.059829086
-1.5153235	fife two speed	-0.059829086
-0.82371694	niner two speed	-0.059829086
-1.2360603	golf zero speed	-0.059829086
-1.0854946	one xray speed	-0.059829086
-1.2714128	golf india speed	-0.059829086
-0.66086113	oscar india speed	-0.059829086
-1.2268339	juliett one speed	-0.059829086
-0.9553835	charlie one speed	-0.059829086
-1.6104387	four fife speed	-0.059829086
-0.43893996	whiskey fife speed	-0.18125364
-1.5156679	eight fife speed	-0.059829086
-0.92504025	tango whiskey speed	-0.059829086
-1.4592471	one seven speed	-0.059829086
-1.2102737	yankee seven speed	-0.059829086
-1.1035357	seven seven speed	-0.059829086
-0.6514148	fife foxtrot speed	-0.059829086
-0.6514148	bravo foxtrot speed	-0.059829086
-1.0728356	one golf speed	-0.059829086
-1.0728356	niner golf speed	-0.059829086
-0.92483217	eight golf speed	-0.059829086
-0.65944946	juliett charlie speed	-0.059829086
-1.1099819	six three speed	-0.059829086
-1.4158214	zero three speed	-0.059829086
-1.1099819	oscar three speed	-0.059829086
-1.1939592	india tango speed	-0.059829086
-0.65795547	niner tango speed	-0.059829086
-0.94025195	victor lima speed	-0.059829086
-1.3704203	victor niner speed	-0.059829086
-1.3007438	six eight speed	-0.059829086
-1.64324	one eight speed	-0.059829086
-1.0915986	two uniform speed	-0.059829086
-0.94097835	delta bravo speed	-0.059829086
-0.6586686	eight romeo speed	-0.059829086
-0.4939878	two fly speed	-0.059829086
-0.35352963	zero fly speed	-0.4065566
-0.22831449	india fly speed	-0.059829086
-0.35352963	one fly speed	-0.18125364
-0.25449756	fife fly speed	-0.13689843
-0.4939878	papa fly speed	-0.059829086
-0.4939878	delta fly speed	-0.059829086
-0.4939878	seven fly speed	-0.059829086
-0.30952105	foxtrot fly speed	-0.18125364
-0.4939878	golf fly speed	-0.059829086
-0.7360676	three fly speed	-0.059829086
-0.4939878	kilo fly speed	-0.059829086
-0.30565077	echo fly speed	-0.059829086
-0.4070469	november fly speed	-0.059829086
-0.4939878	tango fly speed	-0.059829086
-0.4070469	lima fly speed	-0.059829086
-0.4939878	sierra fly speed	-0.059829086
-0.55997634	niner fly speed	-0.059829086
-0.5924125	eight fly speed	-0.059829086
-0.55997634	bravo fly speed	-0.059829086
-0.30565077	romeo fly speed	-0.059829086
-1.3792591	zero speedbird two	-0.059829086
-1.3334767	knots speedbird two	-0.059829086
-1.1967989	india speedbird two	-0.059829086
-1.2844378	fife speedbird two	-0.059829086
-1.4006398	degrees speedbird two	-0.059829086
-0.61597425	delta speedbird two	-0.059829086
-1.3498503	london speedbird two	-0.059829086
-1.3228941	heading speedbird two	-0.059829086
-1.1522056	roger speedbird two	-0.059829086
-1.5365797	astraeus four two	-0.059829086
-1.3979857	level four two	-0.059829086
-1.1493634	charlie four two	-0.059829086
-0.64702374	bravo four two	-0.059829086
-1.0518835	four quebec two	-0.059829086
-1.3229415	astraeus mike two	-0.059829086
-0.16672143	four speed two	-0.059829086
-0.23792389	your speed two	-0.059829086
-0.24927954	two speed two	-0.059829086
-0.16672143	zero speed two	-0.059829086
-0.16672143	xray speed two	-0.059829086
-0.12957162	india speed two	-0.059829086
-0.23792389	one speed two	-0.059829086
-0.1850265	fife speed two	-0.059829086
-0.16672143	whiskey speed two	-0.059829086
-0.10982911	seven speed two	-0.059829086
-0.12957162	foxtrot speed two	-0.059829086
-0.31568667	golf speed two	-0.059829086
-0.16672143	charlie speed two	-0.059829086
-0.31568667	three speed two	-0.059829086
-0.12957162	tango speed two	-0.059829086
-0.16672143	lima speed two	-0.059829086
-0.16672143	niner speed two	-0.059829086
-0.23792389	eight speed two	-0.059829086
-0.16672143	bravo speed two	-0.059829086
-0.15917009	fly speed two	-0.31863257
-1.5756124	speed two two	-0.18125364
-1.483213	astraeus two two	-0.059829086
-0.6383326	whiskey two two	-0.059829086
-1.3697828	level two two	-0.059829086
-1.3511311	eight two two	-0.059829086
-1.3293715	heading two two	-0.059829086
-1.3341392	four six two	-0.059829086
-1.4222201	astraeus six two	-0.059829086
-0.9044216	delta six two	-0.059829086
-1.0444034	foxtrot six two	-0.059829086
-1.7472999	six zero two	-0.059829086
-1.0562158	ryanair zero two	-0.059829086
-1.2294875	astraeus zero two	-0.059829086
-0.65486354	whiskey zero two	-0.059829086
-1.1816031	zero ryanair two	-0.059829086
-1.2688454	knots ryanair two	-0.059829086
-1.1725013	india ryanair two	-0.059829086
-1.1934339	degrees ryanair two	-0.0966564
-1.2024356	yankee ryanair two	-0.059829086
-1.2909375	london ryanair two	-0.059829086
-1.1368179	oscar ryanair two	-0.059829086
-1.1898382	november ryanair two	-0.059829086
-1.1085656	hundred ryanair two	-0.059829086
-1.2262665	heading ryanair two	-0.059829086
-1.2552574	roger ryanair two	-0.059829086
-1.2081296	speedbird xray two	-0.059829086
-0.8582936	ryanair xray two	-0.18125364
-1.2454264	astraeus india two	-0.059829086
-0.65815395	turn right two	-0.4065566
-1.0490222	speedbird one two	-0.059829086
-1.387283	two one two	-0.059829086
-1.4554752	ryanair one two	-0.059829086
-1.3897707	fife one two	-0.059829086
-0.89210254	tango one two	-0.059829086
-1.2928882	heading one two	-0.059829086
-1.3766956	speedbird fife two	-0.059829086
-1.192604	ryanair fife two	-0.059829086
-1.0897678	astraeus fife two	-0.059829086
-1.3224626	level fife two	-0.059829086
-1.1100606	charlie fife two	-0.059829086
-0.87984645	sierra fife two	-0.059829086
-1.1544863	uniform fife two	-0.059829086
-1.3065466	zero astraeus two	-0.059829086
-1.335409	knots astraeus two	-0.059829086
-1.2139322	india astraeus two	-0.059829086
-1.3796142	fife astraeus two	-0.059829086
-1.2921649	degrees astraeus two	-0.059829086
-1.3383492	alfa astraeus two	-0.059829086
-1.1710883	yankee astraeus two	-0.059829086
-1.3495373	london astraeus two	-0.059829086
-1.262775	tango astraeus two	-0.059829086
-1.335409	heading astraeus two	-0.059829086
-1.0481704	ryanair whiskey two	-0.059829086
-0.6473708	fife victor two	-0.059829086
-1.2188375	astraeus victor two	-0.059829086
-0.83158666	ryanair alfa two	-0.059829086
-0.9253788	sierra alfa two	-0.059829086
-1.3700467	speedbird papa two	-0.059829086
-1.0490988	four papa two	-0.059829086
-1.0490988	one papa two	-0.059829086
-0.91229403	charlie yankee two	-0.059829086
-0.64707017	three yankee two	-0.059829086
-0.7516363	flight level two	-0.37798634
-1.2112881	six seven two	-0.059829086
-1.4629843	ryanair seven two	-0.059829086
-1.0508741	whiskey seven two	-0.059829086
-1.2112881	hotel seven two	-0.059829086
-1.3079276	ryanair foxtrot two	-0.059829086
-1.189341	astraeus foxtrot two	-0.059829086
-1.1251452	eight foxtrot two	-0.059829086
-1.340897	speedbird oscar two	-0.059829086
-1.2142017	astraeus oscar two	-0.059829086
-1.0528858	seven oscar two	-0.059829086
-0.8654335	india charlie two	-0.059829086
-1.0715132	fife charlie two	-0.059829086
-0.8654335	seven charlie two	-0.059829086
-0.8654335	romeo charlie two	-0.059829086
-1.3772694	ryanair three two	-0.059829086
-1.3058732	one three two	-0.059829086
-1.2071401	fife three two	-0.059829086
-1.1615657	alfa three two	-0.059829086
-1.3329256	level three two	-0.059829086
-1.2071401	heading three two	-0.059829086
-1.3478032	speedbird kilo two	-0.059829086
-0.9166473	ryanair kilo two	-0.059829086
-1.4688838	astraeus kilo two	-0.059829086
-1.360496	speedbird echo two	-0.059829086
-0.91772336	whiskey echo two	-0.059829086
-0.6496764	papa november two	-0.059829086
-1.0620112	niner november two	-0.059829086
-0.7989274	astraeus tango two	-0.059829086
-1.2190081	one lima two	-0.059829086
-1.2190081	echo lima two	-0.059829086
-1.0561953	uniform lima two	-0.059829086
-0.64866126	oscar zulu two	-0.059829086
-1.0534251	two sierra two	-0.059829086
-1.0534251	victor sierra two	-0.059829086
-1.2410021	alfa sierra two	-0.059829086
-1.4495612	speedbird niner two	-0.059829086
-1.2303658	victor niner two	-0.059829086
-1.2303658	seven niner two	-0.059829086
-1.2790648	echo niner two	-0.059829086
-1.2303658	niner niner two	-0.059829086
-0.94368875	speedbird eight two	-0.059829086
-1.437532	ryanair eight two	-0.059829086
-1.4607576	astraeus eight two	-0.059829086
-1.1581331	papa eight two	-0.059829086
-1.2033294	three eight two	-0.059829086
-1.2033294	eight eight two	-0.059829086
-1.365987	speedbird uniform two	-0.059829086
-1.3224543	astraeus bravo two	-0.059829086
-0.6494036	bravo bravo two	-0.059829086
-1.2184654	speedbird romeo two	-0.059829086
-0.90704566	niner romeo two	-0.059829086
-0.5352713	fly heading two	-0.2643423
-0.411188	turn left two	-0.54485935
-1.5116311	zero speedbird six	-0.059829086
-1.3742391	knots speedbird six	-0.059829086
-1.320661	fife speedbird six	-0.059829086
-1.276268	degrees speedbird six	-0.059829086
-1.2504878	alfa speedbird six	-0.059829086
-1.3922578	london speedbird six	-0.059829086
-1.0785887	kilo speedbird six	-0.059829086
-1.1786242	roger speedbird six	-0.059829086
-1.109375	speedbird four six	-0.059829086
-1.3326732	ryanair four six	-0.059829086
-0.855304	xray four six	-0.059829086
-0.6152025	juliett four six	-0.059829086
-1.3451309	astraeus four six	-0.059829086
-0.9779724	whiskey four six	-0.059829086
-1.2431197	level four six	-0.059829086
-0.8997901	six quebec six	-0.059829086
-1.128141	one quebec six	-0.059829086
-1.2540765	ryanair mike six	-0.059829086
-1.2150646	india mike six	-0.059829086
-0.90524495	whiskey mike six	-0.059829086
-0.622247	mike two six	-0.059829086
-1.1737857	speed two six	-0.4065566
-1.4285463	ryanair two six	-0.059829086
-1.3888162	astraeus two six	-0.059829086
-1.0750377	alfa two six	-0.059829086
-1.289403	level two six	-0.059829086
-1.2738469	eight two six	-0.059829086
-1.255561	heading two six	-0.059829086
-1.443423	two six six	-0.059829086
-1.5127882	ryanair six six	-0.059829086
-0.926957	bravo six six	-0.059829086
-1.4712328	speedbird zero six	-0.059829086
-1.2401474	ryanair zero six	-0.059829086
-1.2160188	papa zero six	-0.059829086
-1.1480587	lima zero six	-0.059829086
-1.706712	eight zero six	-0.059829086
-1.4765491	zero ryanair six	-0.059829086
-1.3812402	knots ryanair six	-0.059829086
-0.6247302	xray ryanair six	-0.059829086
-1.4467515	degrees ryanair six	-0.059829086
-1.333048	alfa ryanair six	-0.059829086
-1.000262	delta ryanair six	-0.059829086
-1.4100788	london ryanair six	-0.059829086
-1.0782174	roger ryanair six	-0.059829086
-1.2879274	ryanair xray six	-0.059829086
-1.238496	speedbird india six	-0.059829086
-0.917517	delta india six	-0.059829086
-1.2283353	bravo india six	-0.059829086
-1.3393862	speedbird juliett six	-0.059829086
-1.1864223	astraeus juliett six	-0.059829086
-0.8965221	bravo juliett six	-0.059829086
-1.2698811	speed one six	-0.18125364
-0.6444031	zero one six	-0.059829086
-1.2279434	ryanair one six	-0.059829086
-1.2694263	one one six	-0.059829086
-1.3834184	level one six	-0.059829086
-1.2383187	zero fife six	-0.059829086
-1.5315465	ryanair fife six	-0.059829086
-1.4652671	astraeus fife six	-0.059829086
-1.4098833	level fife six	-0.059829086
-1.1445384	lima fife six	-0.059829086
-1.5106369	zero astraeus six	-0.10441202
-1.4526166	knots astraeus six	-0.059829086
-1.4967513	fife astraeus six	-0.059829086
-1.5610824	degrees astraeus six	-0.059829086
-1.3249918	oscar astraeus six	-0.059829086
-0.89471483	kilo astraeus six	-0.059829086
-1.3556134	tango astraeus six	-0.059829086
-0.8965417	four whiskey six	-0.059829086
-0.63844633	kilo whiskey six	-0.059829086
-1.3841552	ryanair victor six	-0.059829086
-1.2188375	astraeus victor six	-0.059829086
-1.4547094	speedbird alfa six	-0.059829086
-1.070365	one alfa six	-0.059829086
-1.070365	niner alfa six	-0.059829086
-1.4713979	ryanair papa six	-0.059829086
-1.3328747	ryanair delta six	-0.059829086
-1.2697713	astraeus delta six	-0.059829086
-1.2177175	speedbird yankee six	-0.059829086
-0.91229403	fife yankee six	-0.059829086
-1.4646798	flight level six	-0.4065566
-0.89122957	mach decimal six	-0.61741
-1.4629843	ryanair seven six	-0.059829086
-0.6453328	xray seven six	-0.059829086
-1.1558747	kilo seven six	-0.059829086
-1.0508741	lima seven six	-0.059829086
-1.189341	astraeus foxtrot six	-0.059829086
-0.8980168	seven foxtrot six	-0.059829086
-0.6392598	uniform foxtrot six	-0.059829086
-1.1390038	ryanair golf six	-0.059829086
-1.0409524	astraeus golf six	-0.059829086
-1.2054486	oscar golf six	-0.059829086
-0.7992943	ryanair oscar six	-0.18125364
-1.3887975	astraeus charlie six	-0.059829086
-0.9091849	charlie charlie six	-0.059829086
-1.285343	astraeus three six	-0.059829086
-0.6596482	delta three six	-0.059829086
-1.4994234	level three six	-0.059829086
-1.3754343	speedbird kilo six	-0.059829086
-1.3528386	speedbird echo six	-0.059829086
-0.91494524	india echo six	-0.059829086
-0.64850765	echo echo six	-0.059829086
-1.0699176	niner november six	-0.059829086
-1.2880635	speedbird tango six	-0.059829086
-1.41429	ryanair lima six	-0.059829086
-1.3909385	astraeus zulu six	-0.059829086
-1.1471089	speedbird sierra six	-0.059829086
-1.0055226	two sierra six	-0.059829086
-1.0884786	six sierra six	-0.059829086
-1.0315926	ryanair sierra six	-0.059829086
-1.3339459	zero niner six	-0.059829086
-0.8944649	golf niner six	-0.059829086
-1.030719	three niner six	-0.059829086
-0.90199596	echo niner six	-0.059829086
-0.63729876	bravo niner six	-0.059829086
-1.6778859	astraeus eight six	-0.059829086
-0.93370503	victor eight six	-0.059829086
-1.0853637	kilo eight six	-0.059829086
-1.3373834	astraeus hotel six	-0.059829086
-1.0613066	zero bravo six	-0.059829086
-1.3224543	astraeus bravo six	-0.059829086
-1.5879403	fly heading six	-0.18125364
-1.4804899	zero speedbird zero	-0.059829086
-1.4768888	knots speedbird zero	-0.059829086
-1.3484007	degrees speedbird zero	-0.059829086
-1.321456	alfa speedbird zero	-0.059829086
-1.4998409	london speedbird zero	-0.059829086
-0.6400358	echo speedbird zero	-0.059829086
-1.0889239	speedbird four zero	-0.059829086
-0.9773361	four four zero	-0.059829086
-0.40732756	two four zero	-0.059829086
-0.5432603	one four zero	-0.059829086
-0.7702484	fife four zero	-0.059829086
-0.9629325	astraeus four zero	-0.18125364
-0.74750084	victor four zero	-0.059829086
-1.0157105	level four zero	-0.059829086
-0.74750084	decimal four zero	-0.059829086
-0.8950017	seven four zero	-0.059829086
-0.51633835	three four zero	-0.059829086
-0.549962	kilo four zero	-0.059829086
-1.0088661	eight four zero	-0.059829086
-0.549962	heading four zero	-0.059829086
-1.2810106	astraeus quebec zero	-0.059829086
-0.6448237	one mike zero	-0.059829086
-1.3012913	astraeus mike zero	-0.059829086
-0.6448237	niner mike zero	-0.059829086
-0.85379326	speedbird two zero	-0.059829086
-0.92704445	four two zero	-0.059829086
-0.8241406	speed two zero	-0.64959466
-0.740604	two two zero	-0.059829086
-1.1802223	ryanair two zero	-0.059829086
-0.56414735	india two zero	-0.059829086
-0.77007145	right two zero	-0.059829086
-1.0167403	one two zero	-0.059829086
-1.0473117	fife two zero	-0.059829086
-1.1410761	astraeus two zero	-0.059829086
-1.0679499	level two zero	-0.059829086
-0.78173065	three two zero	-0.059829086
-0.77007145	tango two zero	-0.059829086
-1.0585412	eight two zero	-0.059829086
-1.0473117	heading two zero	-0.059829086
-0.77007145	left two zero	-0.059829086
-1.0498933	speedbird six zero	-0.059829086
-1.0286431	four six zero	-0.059829086
-0.85406536	mike six zero	-0.059829086
-0.67992264	two six zero	-0.059829086
-0.99538535	zero six zero	-0.059829086
-0.90595496	ryanair six zero	-0.059829086
-0.5570772	xray six zero	-0.059829086
-0.7306976	one six zero	-0.059829086
-0.97049916	fife six zero	-0.059829086
-0.5570772	level six zero	-0.059829086
-0.75876755	decimal six zero	-0.059829086
-0.91090935	three six zero	-0.059829086
-1.3694915	two zero zero	-0.059829086
-1.6064323	one zero zero	-0.059829086
-1.4622613	astraeus zero zero	-0.059829086
-1.6863232	seven zero zero	-0.059829086
-1.6794362	three zero zero	-0.059829086
-1.6606548	eight zero zero	-0.059829086
-1.3779217	zero ryanair zero	-0.059829086
-1.3870857	knots ryanair zero	-0.059829086
-1.3285011	fife ryanair zero	-0.059829086
-1.2823067	degrees ryanair zero	-0.059829086
-1.4163284	london ryanair zero	-0.059829086
-1.2208184	oscar ryanair zero	-0.059829086
-0.6257485	romeo ryanair zero	-0.059829086
-1.3319969	heading ryanair zero	-0.059829086
-1.3404948	astraeus xray zero	-0.059829086
-1.0526786	eight xray zero	-0.059829086
-1.3858434	speedbird juliett zero	-0.059829086
-0.8112653	two one zero	-0.059829086
-1.0487133	six one zero	-0.059829086
-0.8511077	right one zero	-0.059829086
-1.1560729	one one zero	-0.059829086
-1.2786561	fife one zero	-0.059829086
-1.2329414	level one zero	-0.059829086
-0.6715446	three one zero	-0.059829086
-1.196288	heading one zero	-0.059829086
-0.8511077	left one zero	-0.059829086
-0.8266079	four fife zero	-0.059829086
-0.98002714	mike fife zero	-0.059829086
-0.92146295	two fife zero	-0.059829086
-1.311474	ryanair fife zero	-0.059829086
-0.7090046	one fife zero	-0.059829086
-1.2696155	fife fife zero	-0.059829086
-1.271667	astraeus fife zero	-0.059829086
-1.2217393	level fife zero	-0.059829086
-0.8407486	decimal fife zero	-0.059829086
-1.3372817	three fife zero	-0.059829086
-1.3093985	zero astraeus zero	-0.10441202
-1.3402585	knots astraeus zero	-0.059829086
-1.384461	fife astraeus zero	-0.059829086
-1.4339991	degrees astraeus zero	-0.059829086
-0.61824226	papa astraeus zero	-0.059829086
-1.354548	london astraeus zero	-0.059829086
-1.1741927	november astraeus zero	-0.059829086
-1.266717	tango astraeus zero	-0.059829086
-1.3402585	heading astraeus zero	-0.059829086
-1.2614204	roger astraeus zero	-0.059829086
-1.2649441	astraeus whiskey zero	-0.059829086
-0.9155579	xray victor zero	-0.059829086
-1.0598512	delta victor zero	-0.059829086
-0.9331283	seven alfa zero	-0.059829086
-1.273812	speedbird papa zero	-0.059829086
-1.1373304	six papa zero	-0.059829086
-1.0348208	ryanair papa zero	-0.059829086
-0.87064683	eight papa zero	-0.059829086
-0.8678221	astraeus delta zero	-0.059829086
-1.2235786	speedbird yankee zero	-0.059829086
-1.0593317	two yankee zero	-0.059829086
-1.1265583	speedbird seven zero	-0.059829086
-0.9673205	four seven zero	-0.059829086
-0.64695406	two seven zero	-0.059829086
-0.7821683	zero seven zero	-0.059829086
-1.099572	ryanair seven zero	-0.059829086
-0.64695406	one seven zero	-0.059829086
-1.0764823	fife seven zero	-0.059829086
-1.0722653	astraeus seven zero	-0.059829086
-0.5644278	level seven zero	-0.059829086
-0.77052206	decimal seven zero	-0.059829086
-0.92769146	three seven zero	-0.059829086
-0.77052206	heading seven zero	-0.059829086
-0.914485	delta foxtrot zero	-0.059829086
-0.87099606	six golf zero	-0.059829086
-1.3030343	astraeus golf zero	-0.059829086
-1.137976	oscar golf zero	-0.059829086
-0.87099606	zulu golf zero	-0.059829086
-1.0711834	four oscar zero	-0.059829086
-1.4221401	astraeus charlie zero	-0.059829086
-0.99622005	speedbird three zero	-0.059829086
-0.88518655	four three zero	-0.059829086
-0.90497917	two three zero	-0.059829086
-0.7835782	right three zero	-0.059829086
-0.8587749	one three zero	-0.059829086
-1.0180707	fife three zero	-0.059829086
-1.1604216	astraeus three zero	-0.059829086
-1.0951922	level three zero	-0.059829086
-0.7835782	decimal three zero	-0.059829086
-1.0180707	three three zero	-0.059829086
-0.7835782	bravo three zero	-0.059829086
-1.0180707	heading three zero	-0.059829086
-0.7835782	left three zero	-0.059829086
-1.1563524	astraeus kilo zero	-0.059829086
-1.2563915	ryanair echo zero	-0.059829086
-1.2975736	astraeus november zero	-0.059829086
-1.1633034	oscar november zero	-0.059829086
-1.0706468	four tango zero	-0.059829086
-0.8788849	quebec lima zero	-0.059829086
-1.2940488	ryanair lima zero	-0.059829086
-1.1526784	astraeus lima zero	-0.059829086
-0.62861186	bravo lima zero	-0.059829086
-0.9098058	one zulu zero	-0.059829086
-0.6457173	romeo zulu zero	-0.059829086
-1.4075389	astraeus sierra zero	-0.059829086
-0.6496549	sierra sierra zero	-0.059829086
-0.7700795	four niner zero	-0.059829086
-0.8940395	two niner zero	-0.059829086
-0.96974313	one niner zero	-0.059829086
-1.0942189	fife niner zero	-0.059829086
-0.6289128	level niner zero	-0.059829086
-1.0102593	three niner zero	-0.059829086
-1.1899796	speedbird eight zero	-0.059829086
-1.0561976	four eight zero	-0.059829086
-0.7608254	two eight zero	-0.059829086
-1.2067542	ryanair eight zero	-0.059829086
-0.83276266	one eight zero	-0.059829086
-0.9001999	fife eight zero	-0.059829086
-0.9001999	alfa eight zero	-0.059829086
-1.0071567	papa eight zero	-0.059829086
-0.5797477	level eight zero	-0.059829086
-0.7954164	decimal eight zero	-0.059829086
-0.7954164	charlie eight zero	-0.059829086
-1.0385867	three eight zero	-0.059829086
-0.91560274	juliett uniform zero	-0.059829086
-1.0599136	niner uniform zero	-0.059829086
-0.88224375	six bravo zero	-0.059829086
-0.88224375	golf bravo zero	-0.059829086
-0.88224375	charlie bravo zero	-0.059829086
-1.098858	uniform bravo zero	-0.059829086
-1.2171195	speedbird romeo zero	-0.059829086
-0.8573	ryanair romeo zero	-0.059829086
-1.296776	astraeus romeo zero	-0.059829086
-1.5979261	four zero knots	-0.059829086
-1.4902021	two zero knots	-0.059829086
-1.2981782	six zero knots	-0.11631147
-1.2293559	zero zero knots	-0.059829086
-1.5040743	one zero knots	-0.059829086
-1.35311	fife zero knots	-0.15410079
-1.343469	seven zero knots	-0.18125364
-1.5691121	three zero knots	-0.059829086
-1.2334969	niner zero knots	-0.15410079
-1.3209252	eight zero knots	-0.15410079
-1.2568464	echo mike ryanair	-0.059829086
-1.1846673	uniform mike ryanair	-0.059829086
-0.7895867	four zero ryanair	-0.059829086
-1.1427928	two zero ryanair	-0.059829086
-0.6977983	six zero ryanair	-0.15000951
-1.0599378	one zero ryanair	-0.059829086
-0.68028873	fife zero ryanair	-0.08154871
-0.9797252	seven zero ryanair	-0.09120025
-0.7463661	three zero ryanair	-0.076439194
-0.83043015	niner zero ryanair	-0.059829086
-0.7295773	eight zero ryanair	-0.09370999
-0.5264312	zero knots ryanair	-0.20032406
-1.0854946	echo xray ryanair	-0.059829086
-1.2020397	golf india ryanair	-0.059829086
-1.4223413	lima india ryanair	-0.059829086
-0.8901092	sierra india ryanair	-0.059829086
-1.0444609	romeo india ryanair	-0.059829086
-1.4369322	four fife ryanair	-0.059829086
-1.2678694	six fife ryanair	-0.059829086
-1.4617143	fife fife ryanair	-0.059829086
-1.2678694	seven fife ryanair	-0.059829086
-1.5211974	three fife ryanair	-0.059829086
-1.366871	eight fife ryanair	-0.059829086
-0.43882278	zero degrees ryanair	-0.14222172
-0.6361424	fife degrees ryanair	-0.14625746
-1.169606	mike alfa ryanair	-0.059829086
-1.0930772	victor alfa ryanair	-0.059829086
-0.8499727	november alfa ryanair	-0.059829086
-0.84686524	bravo alfa ryanair	-0.059829086
-1.122368	romeo alfa ryanair	-0.059829086
-1.0371711	india delta ryanair	-0.059829086
-0.97130346	papa yankee ryanair	-0.059829086
-1.0473882	delta yankee ryanair	-0.059829086
-0.8502666	kilo yankee ryanair	-0.059829086
-1.1544846	lima yankee ryanair	-0.059829086
-0.97130346	bravo yankee ryanair	-0.059829086
-0.40925127	contact london ryanair	-0.18886964
-1.2827137	mike oscar ryanair	-0.059829086
-1.1134627	kilo oscar ryanair	-0.059829086
-1.026058	lima oscar ryanair	-0.059829086
-1.2827137	bravo oscar ryanair	-0.059829086
-0.94290155	echo kilo ryanair	-0.059829086
-1.0814577	uniform kilo ryanair	-0.059829086
-1.341381	kilo echo ryanair	-0.059829086
-1.3551528	india november ryanair	-0.059829086
-1.1325554	oscar november ryanair	-0.059829086
-0.7329428	echo november ryanair	-0.059829086
-1.0416069	uniform november ryanair	-0.059829086
-0.9475479	alfa tango ryanair	-0.059829086
-1.1989781	alfa lima ryanair	-0.059829086
-0.8658235	four hundred ryanair	-0.059829086
-0.8658235	fife hundred ryanair	-0.059829086
-0.76818377	three hundred ryanair	-0.059829086
-1.1000806	sierra uniform ryanair	-0.059829086
-0.9339011	uniform romeo ryanair	-0.059829086
-0.952222	present heading ryanair	-0.059829086
-0.2776983	four roger ryanair	-0.059829086
-0.2776983	six roger ryanair	-0.059829086
-0.40865573	zero roger ryanair	-0.059829086
-0.2776983	xray roger ryanair	-0.059829086
-0.37203282	fife roger ryanair	-0.059829086
-0.37203282	alfa roger ryanair	-0.059829086
-0.2776983	seven roger ryanair	-0.059829086
-0.2776983	golf roger ryanair	-0.059829086
-0.37203282	three roger ryanair	-0.059829086
-0.37203282	eight roger ryanair	-0.059829086
-0.37203282	hotel roger ryanair	-0.059829086
-0.2776983	uniform roger ryanair	-0.059829086
-0.37203282	bravo roger ryanair	-0.059829086
-1.9530991	zero speedbird xray	-0.059829086
-1.6398579	knots speedbird xray	-0.059829086
-1.4229031	alfa speedbird xray	-0.059829086
-1.1930087	hundred speedbird xray	-0.059829086
-1.4156772	fife four xray	-0.059829086
-0.6653787	delta four xray	-0.059829086
-1.3137689	ryanair mike xray	-0.059829086
-1.5102307	fife two xray	-0.059829086
-1.5436726	eight two xray	-0.059829086
-0.66530937	hotel six xray	-0.059829086
-1.6461276	speedbird zero xray	-0.059829086
-1.8753153	two zero xray	-0.059829086
-1.7325673	knots ryanair xray	-0.059829086
-1.8401085	degrees ryanair xray	-0.059829086
-1.8002305	london ryanair xray	-0.059829086
-1.0797687	seven xray xray	-0.059829086
-1.191843	to india xray	-0.059829086
-0.93734974	papa india xray	-0.18125364
-1.1828259	tango india xray	-0.059829086
-1.4184271	speedbird juliett xray	-0.059829086
-1.7093368	ryanair one xray	-0.059829086
-0.9521775	lima one xray	-0.059829086
-1.606236	zero astraeus xray	-0.059829086
-1.3245531	fife astraeus xray	-0.059829086
-1.5816379	alfa astraeus xray	-0.059829086
-1.6177742	london astraeus xray	-0.059829086
-1.4243735	oscar astraeus xray	-0.059829086
-1.1348253	november alfa xray	-0.18125364
-1.4191152	speedbird papa xray	-0.059829086
-0.92486274	eight papa xray	-0.059829086
-1.1868892	delta yankee xray	-0.059829086
-1.2636288	speedbird seven xray	-0.059829086
-0.66438484	zulu seven xray	-0.059829086
-1.388718	speedbird oscar xray	-0.059829086
-1.185957	golf oscar xray	-0.059829086
-0.93120825	six charlie xray	-0.059829086
-1.1074126	whiskey three xray	-0.059829086
-0.94913775	lima three xray	-0.059829086
-0.6531079	xray kilo xray	-0.059829086
-0.9318081	astraeus kilo xray	-0.059829086
-0.6531079	foxtrot kilo xray	-0.059829086
-0.6576004	xray echo xray	-0.059829086
-1.3807912	delta echo xray	-0.059829086
-1.458719	speedbird november xray	-0.059829086
-1.5514375	two eight xray	-0.059829086
-1.6886237	ryanair eight xray	-0.059829086
-1.7455282	astraeus eight xray	-0.059829086
-0.9339369	yankee uniform xray	-0.059829086
-0.930237	juliett bravo xray	-0.059829086
-0.6567205	victor bravo xray	-0.059829086
-0.65639675	hotel romeo xray	-0.059829086
-0.6498552	mike speedbird india	-0.059829086
-1.833393	zero speedbird india	-0.059829086
-1.5492878	knots speedbird india	-0.059829086
-1.1584303	november speedbird india	-0.059829086
-1.5320276	heading speedbird india	-0.059829086
-1.4422259	zero four india	-0.059829086
-1.3135381	astraeus mike india	-0.059829086
-0.8721	to mike india	-0.18125364
-0.9130774	route mike india	-0.059829086
-0.66892403	uniform two india	-0.059829086
-1.71835	ryanair zero india	-0.059829086
-1.6335905	zero ryanair india	-0.059829086
-1.5558304	knots ryanair india	-0.059829086
-1.637555	degrees ryanair india	-0.059829086
-1.5996797	london ryanair india	-0.059829086
-1.17172	kilo ryanair india	-0.059829086
-1.2865193	ryanair xray india	-0.059829086
-1.3536528	astraeus xray india	-0.059829086
-1.7005179	ryanair one india	-0.059829086
-1.6805301	one fife india	-0.059829086
-1.797051	zero astraeus india	-0.059829086
-1.6827397	fife astraeus india	-0.059829086
-1.783896	degrees astraeus india	-0.059829086
